SVM-light Version V6.02
0 # kernel type
3 # kernel parameter -d 
1 # kernel parameter -g 
1 # kernel parameter -s 
1 # kernel parameter -r 
empty# kernel parameter -u 
100 # highest feature index 
1620 # number of training documents 
707 # number of support vectors plus 1 
0.1712227 # threshold b, each following line is a SV (starting with alpha*y)
0.12821235964773184 1:0.04264937 2:0.0050817719 3:0.50631106 4:-0.28864929 5:-0.14342403 6:0.067395277 7:0.20857181 8:-0.025349556 9:-0.17089023 10:-0.39546004 11:-0.10064535 12:0.12478298 13:-0.57656956 14:0.15297867 15:-0.027410602 16:-0.38275737 17:0.49795881 18:-0.13712636 19:0.044865064 20:-0.67148191 21:-0.029773057 22:0.57006133 23:0.34678736 24:0.070580572 25:-0.032463398 26:0.10727452 27:0.76494592 28:-0.18789236 29:0.22050171 30:0.20112792 31:-0.23789203 32:0.25779021 33:-0.0905964 34:0.081090637 35:-0.22259057 36:0.23982878 37:-0.11989772 38:-0.26125333 39:0.44186279 40:0.028570628 41:-0.10906507 42:-0.23255992 43:-0.022050519 44:0.17825764 45:-0.45084703 46:-0.088161938 47:-0.045246001 48:0.48242807 49:0.32361409 50:0.080423564 51:-0.020946704 52:0.10805102 53:-0.45486844 54:-0.064587191 55:0.055034745 56:0.15404059 57:-0.54207516 58:0.11710338 59:0.077276252 60:0.0085394271 61:-0.28739828 62:-0.091162227 63:0.44185796 64:0.16406021 65:0.02546953 66:0.092213295 67:0.454079 68:-0.22124752 69:-0.22111213 70:0.049627677 71:-0.20341924 72:0.0029288079 73:0.60274369 74:-0.21456625 75:-0.14407524 76:0.48154563 77:0.082286365 78:-0.24017692 79:0.20957594 80:0.36551908 81:0.26151779 82:0.085573822 83:-0.34293169 84:0.44195622 85:-0.0089536365 86:0.48000664 87:-0.0067442744 88:-0.17704082 89:-0.067851305 90:-0.23951201 91:0.6611107 92:0.62850291 93:0.61322016 94:-0.32834262 95:0.41732505 96:0.23453307 97:-0.27386606 98:-0.14099264 99:0.16246498 100:-0.19907323 #
-0.12821235964773184 1:0.21719161 2:0.19232211 3:0.094446339 4:-0.063704051 5:-0.3126668 6:-0.060001917 7:-0.12091593 8:0.095106602 9:-0.23454188 10:0.23891774 11:-0.19106753 12:0.21295121 13:0.070748255 14:-0.057781175 15:0.059050467 16:-0.69552189 17:0.057527639 18:-0.054484021 19:0.24287774 20:-0.10012514 21:-0.66319227 22:0.45791239 23:-0.28903934 24:0.29613924 25:0.032966975 26:0.33605644 27:0.30024832 28:-0.17200425 29:-0.43751454 30:-0.07965041 31:-0.012135235 32:0.1402308 33:-0.21351041 34:-0.055300776 35:0.11003773 36:-0.0029162543 37:-0.10315652 38:-0.11226241 39:0.1431023 40:0.25127426 41:0.12104466 42:0.1594343 43:0.089938693 44:-0.032988861 45:-0.22201337 46:-0.24474066 47:-0.16723555 48:0.15899056 49:0.11141723 50:0.042537559 51:-0.053862181 52:0.12551464 53:0.18041296 54:0.15517648 55:0.16429208 56:-0.11410496 57:-0.20649581 58:-0.20778765 59:0.31306702 60:-0.039445765 61:-0.7737813 62:0.34913319 63:0.063996524 64:-0.015883124 65:0.32170564 66:-0.088605091 67:-0.026755719 68:-0.11206 69:-0.17555809 70:-0.027320135 71:-0.12374543 72:-0.35627273 73:0.13028018 74:0.20675039 75:0.17230576 76:0.12679647 77:0.41867098 78:-0.159484 79:-0.030687843 80:-0.075160339 81:0.045659613 82:0.36274329 83:-0.048114344 84:-0.058301225 85:0.094520062 86:-0.022193912 87:0.12091102 88:-0.19082034 89:0.03846297 90:0.065634675 91:-0.014165956 92:0.36063963 93:0.24329853 94:-0.22449782 95:0.41249567 96:-0.0057770959 97:-0.33477002 98:0.10169811 99:-0.0038801315 100:0.060458239 #
0.12821235964773184 1:-0.16898906 2:-0.24643841 3:-0.11237615 4:-0.099708349 5:-0.43661633 6:-0.16352358 7:-0.25070313 8:-0.15540132 9:0.13881229 10:0.26698133 11:-0.16794206 12:-0.17527318 13:-0.082825303 14:-0.054016668 15:0.19246663 16:-0.022073722 17:0.27687341 18:-0.32724443 19:0.084901251 20:-0.113511 21:-0.48628953 22:0.076378286 23:-0.40811506 24:0.1566475 25:0.22482744 26:0.29170001 27:0.16916089 28:0.077884965 29:-0.3006525 30:-0.4504326 31:-0.35754424 32:-0.29818511 33:-0.033993486 34:-0.13934372 35:0.015294715 36:-0.23562995 37:-0.074824937 38:0.15668388 39:-0.13819449 40:-0.0089936759 41:0.22112064 42:-0.0022450506 43:-0.04337294 44:-0.084652901 45:-0.085483603 46:0.0093063088 47:-0.012487459 48:0.17188513 49:0.37663111 50:0.060375173 51:-0.068157516 52:0.10924295 53:0.12262245 54:-0.14826541 55:0.36582398 56:0.36517286 57:-0.12309502 58:0.1088921 59:0.13108312 60:0.25081459 61:-0.049993481 62:0.05628394 63:-0.085999839 64:0.04336356 65:-0.12785898 66:-0.040335979 67:0.092152931 68:-0.48866257 69:-0.25243181 70:-0.050173786 71:0.24748243 72:-0.36693648 73:0.55963629 74:0.24273263 75:0.059518155 76:0.28015211 77:-0.1152681 78:-0.025464214 79:0.35429218 80:0.0069957753 81:-0.077472419 82:-0.03637407 83:-0.67234874 84:0.044715773 85:-0.198733 86:-0.0030718227 87:0.26476309 88:-0.10940856 89:0.096822254 90:0.076413035 91:-0.06883736 92:0.51203501 93:0.24945702 94:-0.2190129 95:0.18421812 96:-0.075241461 97:-0.28060737 98:0.063476801 99:-0.0039392477 100:0.24655765 #
-0.12821235964773184 1:-0.19257694 2:-0.49272183 3:0.12492048 4:0.22569804 5:-0.10346229 6:0.07658948 7:-0.40292305 8:0.11469749 9:0.17878331 10:0.25118548 11:-0.42584205 12:-0.3656469 13:-0.0080358144 14:-0.3209618 15:0.041012526 16:-0.075124681 17:-0.29946744 18:-0.24791466 19:0.07464014 20:-0.06191355 21:-0.2738505 22:0.65206945 23:-0.16652687 24:-0.25716132 25:-0.31721315 26:0.47871861 27:-0.010069925 28:0.16343132 29:-0.19455087 30:-0.10573113 31:0.048749838 32:0.26819658 33:-0.46712989 34:-0.26953331 35:0.41253707 36:-0.038422715 37:-0.035522342 38:0.18010727 39:-0.17712148 40:0.26878273 41:0.036522347 42:-0.25686282 43:-0.56450254 44:0.19335814 45:-0.17142943 46:0.21801418 47:0.20253313 48:0.1412712 49:0.1770965 50:-0.19488534 51:-0.22807804 52:0.31861877 53:-0.22584048 54:-0.29209459 55:-0.00046841954 56:-0.20995574 57:-0.40138629 58:0.1768101 59:0.0068971054 60:0.21001557 61:0.045421131 62:0.45693913 63:0.11056586 64:-0.17957799 65:0.25173131 66:-0.18033372 67:0.1877086 68:-0.19720019 69:-0.40677884 70:0.017245932 71:0.14850797 72:-0.62525314 73:0.44350535 74:-0.22872436 75:0.019505911 76:0.26833826 77:0.21796259 78:-0.29799819 79:0.1478277 80:0.49671552 81:0.19801384 82:-0.46990722 83:-0.44389713 84:0.16186307 85:-0.56133825 86:0.18131568 87:-0.018073857 88:-0.076293379 89:0.060265273 90:0.23363972 91:0.076088615 92:0.50781864 93:-0.37386957 94:-0.0078253364 95:0.022036579 96:0.30225334 97:-0.13599239 98:-0.096143849 99:0.31408396 100:-0.22129472 #
-0.12821235964773184 1:-0.25884056 2:-0.40074405 3:-0.10640685 4:0.029148115 5:-0.11166901 6:-0.1298752 7:-0.55562127 8:0.013103866 9:-0.40893459 10:-0.029436016 11:-0.50889146 12:-0.26979315 13:-0.078252308 14:-0.086539648 15:0.17092638 16:-0.39922395 17:0.27018028 18:0.0030766099 19:0.15420003 20:-0.20542265 21:-0.20715173 22:0.44591984 23:-0.1244675 24:0.08872243 25:-0.047166258 26:-0.035710748 27:0.2109506 28:0.46942094 29:0.061243244 30:0.052651498 31:-0.21496932 32:0.22150999 33:-0.15426359 34:-0.078047089 35:-0.21106677 36:0.2868388 37:0.051633481 38:0.32098654 39:0.38907978 40:0.40194333 41:-0.11064819 42:-0.32038903 43:-0.17524941 44:0.053463306 45:-0.24740209 46:-0.22223684 47:0.41005775 48:-0.05062804 49:0.34075168 50:0.19300942 51:-0.13605094 52:0.061361615 53:0.25043505 54:-0.21982691 55:0.27977902 56:-0.48711553 57:-0.16610108 58:-0.11663278 59:0.30374429 60:0.011645758 61:-0.59202248 62:0.18959711 63:-0.21232019 64:0.10005725 65:0.56459516 66:-0.020212879 67:0.29983711 68:-0.30701619 69:-0.30480927 70:0.059781987 71:-0.21452352 72:-0.084512666 73:0.28712431 74:-0.19098856 75:0.35855228 76:0.22861339 77:0.42135286 78:-0.23044537 79:0.16178459 80:0.025123788 81:-0.095591314 82:0.16109909 83:-0.16927612 84:-0.016946841 85:-0.070702121 86:-0.16214614 87:0.16348986 88:0.16974607 89:-0.068054177 90:-0.14454359 91:0.29024678 92:0.55300307 93:0.26633838 94:-0.0011776881 95:0.34939674 96:-0.15369587 97:-0.43148109 98:-0.2230193 99:-0.01282378 100:-0.26033357 #
0.12821235964773184 1:0.067861773 2:0.096288443 3:0.035404447 4:-0.12454905 5:-0.17552994 6:-0.13734785 7:0.16273187 8:0.30408913 9:0.029529406 10:0.036699563 11:-0.47134107 12:0.14681005 13:0.076559566 14:0.024551451 15:0.084816262 16:-0.40247676 17:0.087952189 18:-0.30751747 19:0.014168314 20:-0.15329243 21:-0.33471289 22:0.2103387 23:-0.32979599 24:0.0096697863 25:0.086292855 26:0.046648026 27:0.20483223 28:-0.0043592285 29:-0.0021261617 30:-0.17621884 31:-0.16797775 32:-0.04485419 33:0.14845866 34:-0.060278066 35:-0.11270185 36:-0.16548163 37:-0.10304908 38:0.15719493 39:0.21367435 40:-0.11676117 41:-0.11983202 42:0.24919711 43:0.23843607 44:-0.10787816 45:-0.33853027 46:-0.15589549 47:0.00016031053 48:-0.090390503 49:0.26228702 50:0.2697717 51:0.062028009 52:0.19026616 53:-0.081287362 54:-0.083052672 55:0.068814121 56:0.24986413 57:-0.06511493 58:-0.015556878 59:0.095499672 60:0.21864811 61:-0.30179384 62:-0.053910434 63:0.13424641 64:0.030022424 65:0.16043687 66:0.11224651 67:-0.079036303 68:-0.7988832 69:-0.41732761 70:-0.10573299 71:0.039481144 72:-0.23639303 73:0.098562263 74:-0.10103533 75:-0.10952068 76:0.096088625 77:0.074430682 78:-0.0063964333 79:0.34596717 80:-0.22269194 81:0.26606548 82:-0.032374837 83:-0.52545959 84:0.17622428 85:0.046096332 86:-0.049268298 87:-0.15293157 88:-0.2170257 89:0.060296483 90:0.12137651 91:0.24810514 92:0.60058206 93:0.43773401 94:-0.27631101 95:-0.013598757 96:-0.49959144 97:-0.0033905944 98:-0.17326507 99:0.19998157 100:-0.014863638 #
0.12821235964773184 1:-0.056413401 2:-0.16581847 3:0.097777747 4:-0.31535625 5:-0.39389095 6:0.16070421 7:0.012301352 8:-0.34416744 9:0.03373887 10:0.27067885 11:-0.18716908 12:0.21855362 13:-0.21297085 14:0.079928711 15:0.23789337 16:-0.022077311 17:-0.21734977 18:-0.0066618221 19:-0.27914107 20:-0.18710057 21:-0.17273325 22:0.1554084 23:-0.21011978 24:0.085335605 25:-0.084202923 26:0.23452906 27:0.33957714 28:0.023521896 29:-0.12914814 30:-0.12713709 31:0.091019697 32:0.12479297 33:0.10941881 34:-0.03308503 35:0.13532336 36:-0.041259736 37:-0.16376531 38:-0.034919396 39:0.21072529 40:0.1054159 41:-0.4512668 42:-0.19991322 43:-0.34381363 44:-0.02549015 45:-0.048163585 46:-0.20551561 47:0.21115053 48:0.12905227 49:0.55654746 50:-0.25076371 51:-0.37573409 52:0.58967018 53:-0.10294832 54:0.22384806 55:0.07107342 56:0.065050408 57:-0.028213477 58:-0.13167773 59:0.3081364 60:-0.029425055 61:-0.33334908 62:-0.059866756 63:-0.2942903 64:0.14746706 65:0.30999997 66:-0.052818377 67:0.067794546 68:-0.23511812 69:0.16982046 70:0.17496201 71:0.11169472 72:-0.46268356 73:0.50774205 74:-0.071116447 75:0.11806699 76:0.32546318 77:0.089859933 78:-0.18512926 79:0.0093225092 80:0.31134388 81:0.20884611 82:0.2154576 83:-0.41520721 84:-0.012746225 85:-0.13091102 86:0.34705964 87:-0.27547017 88:-0.11769529 89:-0.037881721 90:0.26830366 91:0.082501642 92:0.30826697 93:-0.033760436 94:-0.082365438 95:0.2797612 96:0.087935448 97:-0.081469186 98:-0.038512982 99:-0.14484382 100:-0.31825641 #
0.12821235964773184 1:-0.26329926 2:0.13966727 3:-0.0476759 4:0.34944272 5:-0.17015842 6:0.26455304 7:-0.37264749 8:0.16767038 9:-0.43938041 10:0.083299614 11:0.18786041 12:0.38516477 13:-0.51136327 14:0.12007705 15:0.21635316 16:-0.34795433 17:-0.26460743 18:0.075038463 19:-0.11205705 20:-0.12853797 21:-0.52636075 22:0.52456486 23:-0.2932913 24:0.2008958 25:0.2188376 26:0.39759383 27:0.35026976 28:-0.27009401 29:-0.30659223 30:-0.12050418 31:-0.20577657 32:-0.21800342 33:-0.036279622 34:0.023414183 35:0.036544502 36:-0.38854745 37:-0.46254575 38:0.085233785 39:0.025706742 40:0.31797677 41:0.22594871 42:-0.34305152 43:0.11195256 44:-0.036956552 45:-0.20180778 46:-0.048788406 47:0.32388484 48:-0.20089623 49:0.48713323 50:0.29251564 51:-0.14275917 52:0.058178201 53:0.042893298 54:-0.36852914 55:0.12907092 56:-0.55521733 57:0.40276089 58:-0.2409208 59:0.91858697 60:0.20421001 61:-0.23209974 62:0.21339385 63:0.18922105 64:0.1711605 65:0.011302163 66:0.04714128 67:0.24560325 68:-0.081445359 69:0.12583341 70:0.041548304 71:-0.084891886 72:-0.58966452 73:0.031839449 74:-0.69913167 75:0.73322439 76:0.10513686 77:0.19834308 78:-0.4192051 79:0.14729726 80:-0.012535095 81:0.14642879 82:-0.037068829 83:-0.30331248 84:-0.13462855 85:-0.8092289 86:0.31588003 87:-0.28069869 88:0.049404819 89:0.52072644 90:-0.12498192 91:-0.2827405 92:0.7817837 93:0.21121286 94:0.2328261 95:0.34646794 96:0.11265333 97:-0.23506097 98:0.46629405 99:-0.1933728 100:0.083509877 #
-0.077047279833647134 1:-0.37848449 2:-0.22737393 3:0.25677955 4:-0.060182538 5:-0.44291398 6:-0.36777669 7:-0.36867598 8:-0.11707323 9:-0.10354286 10:0.28943151 11:-0.16509913 12:-0.098561376 13:0.16713265 14:0.21765308 15:0.15395238 16:-0.32570076 17:-0.10809069 18:-0.24128647 19:0.06004497 20:-0.12971276 21:-0.054835208 22:0.30034709 23:-0.11816477 24:-0.018083196 25:0.097240143 26:0.48397031 27:0.20996147 28:0.070210874 29:-4.9130402e-005 30:0.045177937 31:-0.14854221 32:-0.21328834 33:0.26679218 34:-0.0086695272 35:-0.0031752083 36:-0.015836256 37:0.15622158 38:-0.0035518983 39:-0.18507659 40:0.065690495 41:-0.070466757 42:0.096984908 43:0.030132087 44:-0.027824266 45:-0.064743347 46:-0.22007494 47:0.2236394 48:-0.0039971485 49:0.62513483 50:0.098431021 51:0.42162213 52:0.10307076 53:-0.35350001 54:-0.23942059 55:-0.064069591 56:0.13462292 57:-0.35041347 58:-0.093284003 59:0.43652615 60:0.39758971 61:-0.098217756 62:-0.26105419 63:-0.083021089 64:0.083650544 65:0.20720881 66:-0.217538 67:-0.062215939 68:-0.1839094 69:-0.14846772 70:-0.25656649 71:-0.21721858 72:0.023549113 73:0.24931467 74:-0.19791976 75:-0.13572647 76:-0.0058487193 77:0.36896268 78:0.0060239895 79:0.12475872 80:-0.041275091 81:-0.079666622 82:-0.053970065 83:-0.15509447 84:-0.25690579 85:-0.15741476 86:0.39155123 87:-0.13026738 88:-0.32377377 89:0.020711588 90:-0.059271149 91:0.051223733 92:0.40124258 93:0.17107821 94:0.084331289 95:-0.02607302 96:0.12543598 97:-0.1563646 98:0.057500694 99:-0.18950057 100:-0.2848725 #
0.12821235964773184 1:0.23881878 2:-0.34958035 3:-0.18212089 4:-0.029729256 5:-0.085374221 6:0.0086250193 7:-0.2488941 8:0.092679478 9:-0.12850925 10:0.011263425 11:-0.36039165 12:-0.095899999 13:-0.25003147 14:-0.025500987 15:-0.061614469 16:-0.34654152 17:0.21212304 18:-0.17302519 19:0.31948489 20:-0.072384998 21:0.1125415 22:0.19089675 23:-0.32878742 24:0.37205413 25:-0.0072914483 26:0.49814126 27:0.28135529 28:-0.29244593 29:0.15337302 30:-0.030968325 31:0.033436798 32:-0.34605032 33:0.1088075 34:-0.038022075 35:0.19425489 36:0.25044933 37:0.38796359 38:-0.18739575 39:0.023031989 40:-0.16314888 41:-0.13741592 42:-0.37214428 43:0.13241719 44:-0.032408901 45:-0.23682569 46:-0.15029445 47:0.067009911 48:0.1031926 49:0.62584859 50:0.26701593 51:-0.040122125 52:0.041207723 53:-0.34102175 54:-0.12699853 55:-0.012639122 56:-0.056909449 57:-0.36138946 58:-0.20287994 59:0.17652833 60:0.35990205 61:0.017962739 62:-0.34062269 63:-0.010720802 64:0.052982252 65:-0.11691131 66:-0.10597107 67:-0.2379939 68:0.11785156 69:0.0051753623 70:-0.20196453 71:-0.096005745 72:0.1672595 73:0.46681419 74:-0.45895839 75:0.053624101 76:0.084016949 77:0.14389689 78:-0.39529768 79:-0.018984901 80:-0.3431147 81:0.1660872 82:0.11057712 83:-0.43215105 84:0.041872583 85:-0.04824999 86:0.23793577 87:-0.17192787 88:-0.058466036 89:0.1643406 90:0.13529269 91:0.14360359 92:0.61679828 93:0.72452968 94:-0.064233579 95:0.12627102 96:-0.041285746 97:-0.086076818 98:0.020981805 99:0.15772061 100:-0.38313907 #
-0.12821235964773184 1:0.27501866 2:-0.41137809 3:-0.16029949 4:0.02346557 5:0.13711199 6:0.23204702 7:-0.01292936 8:0.22600563 9:-0.041201305 10:-0.12064026 11:-0.21847624 12:-0.0060410565 13:0.096212976 14:-0.1377711 15:0.12795708 16:-0.023499748 17:-0.21756858 18:-0.40491235 19:0.082292929 20:-0.25266588 21:-0.55890501 22:-0.14557506 23:0.14080296 24:0.12030469 25:0.02480904 26:0.06714499 27:0.54742569 28:-0.24052703 29:0.25083587 30:0.045663822 31:0.18931459 32:0.29143843 33:0.21565175 34:0.33319438 35:-0.27214661 36:0.1190974 37:-0.22476518 38:0.19148754 39:-0.051227383 40:-0.069101296 41:0.19852492 42:-0.26080918 43:0.035783686 44:0.013364968 45:-0.10803831 46:-0.36195901 47:0.2588276 48:-0.35236105 49:0.83183336 50:-0.0059473491 51:-0.28839412 52:0.2219547 53:-0.075727902 54:0.0012735325 55:-0.054816976 56:-0.2110322 57:-0.32075176 58:0.21665628 59:0.17771517 60:-0.51545334 61:-1.0336875 62:-0.077287666 63:0.06308338 64:0.057512879 65:0.53931713 66:-0.15521237 67:0.12150732 68:-0.41739684 69:0.2324685 70:0.26974192 71:-0.028969498 72:-0.3746956 73:0.54330188 74:-0.058621991 75:-0.064060457 76:0.34478188 77:-0.044575788 78:-0.30676949 79:0.16942018 80:0.18167418 81:0.42181996 82:-0.26152456 83:-0.37840381 84:-0.1677466 85:-0.19050123 86:0.3175967 87:-0.31464431 88:-0.35683402 89:0.12772785 90:0.3121264 91:0.15457627 92:0.4855749 93:0.13810322 94:0.10194889 95:0.32147199 96:-0.024495788 97:0.23661928 98:-0.31877986 99:-0.11652403 100:-0.078116268 #
-0.12821235964773184 1:0.037410341 2:-0.14304529 3:-0.55227852 4:0.14356254 5:-0.18626204 6:-0.20678048 7:0.32705343 8:-0.19912912 9:-0.33377478 10:0.16959424 11:-0.19492993 12:-0.27823001 13:-0.44935042 14:0.14175604 15:0.6141448 16:-0.17623818 17:0.17323554 18:-0.076677203 19:-0.095183328 20:0.04733045 21:-0.23433109 22:0.28605056 23:-0.1612421 24:0.045158137 25:-0.10802161 26:0.22480538 27:0.55177528 28:-0.14649419 29:-0.10812715 30:-0.10069979 31:-0.47373441 32:-0.5049513 33:-0.27515227 34:0.63155591 35:-0.27396461 36:-0.35895225 37:-0.53198189 38:0.12218732 39:0.23609731 40:0.034297898 41:-0.5296101 42:-0.50373948 43:-0.44607821 44:-0.20455712 45:-0.40273595 46:-0.53907305 47:0.30021021 48:-0.11453225 49:0.58746332 50:0.48901886 51:-0.19862244 52:0.041768521 53:-0.048313495 54:-0.1688925 55:0.88758951 56:0.26042992 57:-0.0098206783 58:-0.26451117 59:0.29239792 60:0.24493873 61:-0.51693571 62:0.15802038 63:0.10396457 64:0.25655872 65:0.32340625 66:0.19454367 67:0.21482655 68:0.090096958 69:0.11863413 70:-0.68974787 71:-0.46290344 72:-0.53992397 73:0.60869259 74:-0.070002608 75:-0.30156374 76:0.11139943 77:0.03536988 78:-0.40230331 79:-0.0012525917 80:-0.28897816 81:0.31908435 82:-0.13727564 83:0.026984232 84:0.20149526 85:-0.44723171 86:-0.12839951 87:-0.22027867 88:0.78561956 89:-0.014535763 90:0.069263905 91:-0.063806258 92:0.51655191 93:0.093826361 94:-0.020753004 95:0.2642931 96:0.0018863218 97:0.25405064 98:-0.2629967 99:-0.29681143 100:-0.25061202 #
-0.12821235964773184 1:-0.036241014 2:-0.068864971 3:-0.045485765 4:-0.13718545 5:-0.77095616 6:0.020396151 7:0.037192147 8:-0.024799686 9:0.36708108 10:-0.12919201 11:-0.14751662 12:-0.2812551 13:0.32323784 14:0.23647048 15:0.35311925 16:-0.16758171 17:0.16969463 18:0.25624985 19:0.18084177 20:-0.11049791 21:-0.0085883746 22:0.10531848 23:0.21855322 24:0.35931337 25:-0.44467252 26:0.45249459 27:0.38970801 28:-0.36720669 29:0.24791497 30:-0.20968674 31:-0.31677243 32:0.22749813 33:-0.11796897 34:-0.10816189 35:0.37351826 36:-0.14715502 37:0.14178923 38:-0.20057659 39:0.18920903 40:0.1045317 41:-0.32229027 42:-0.54310334 43:-0.23280498 44:0.042215239 45:-0.43679774 46:-0.17409723 47:0.33800355 48:-0.50780332 49:0.69724023 50:-0.3854582 51:-0.16548303 52:0.013498011 53:-0.25497177 54:-0.26495612 55:-0.13995051 56:-0.32603294 57:-0.072163202 58:0.011873603 59:0.35004646 60:-0.043611851 61:-0.31992936 62:-0.12329605 63:0.25150245 64:0.2267911 65:0.5772379 66:0.068164229 67:0.0072125695 68:-0.60379499 69:-0.32279807 70:-0.23723273 71:-0.094106443 72:-0.18688992 73:0.34481394 74:-0.055964481 75:0.092667796 76:0.42266089 77:0.36998639 78:-0.5173105 79:0.10665461 80:-0.26637778 81:0.064515822 82:0.18922439 83:-0.5917936 84:0.13084058 85:0.10814949 86:0.13226207 87:-0.20389187 88:-0.13080423 89:-0.047034364 90:-0.039834708 91:0.44753829 92:0.11753599 93:0.40686256 94:-0.29003152 95:0.24260318 96:-0.0071129212 97:-0.0441145 98:-0.21714106 99:-0.050533831 100:-0.29871461 #
-0.12821235964773184 1:0.22972527 2:-0.2571505 3:0.25175956 4:-0.2647419 5:-0.27130747 6:-0.07652618 7:-0.20768964 8:-0.1935191 9:0.21791817 10:0.085656531 11:-0.21383058 12:-0.062174272 13:-0.37428471 14:0.10346097 15:-0.052556761 16:-0.047725059 17:0.29392079 18:0.066130631 19:0.37398547 20:-0.79679167 21:-0.25095737 22:0.14548351 23:0.17056976 24:0.12676643 25:-0.27142313 26:-0.047509361 27:0.77366585 28:-0.25398365 29:0.63908964 30:-0.18526983 31:0.040190492 32:0.0063009388 33:0.069126584 34:-0.21572226 35:0.027419051 36:-0.30696186 37:-0.33860838 38:-0.5577594 39:0.24333312 40:0.30137798 41:-0.090288684 42:-0.53967726 43:0.072590716 44:-0.17356305 45:-0.63094962 46:-0.22296697 47:0.036250237 48:0.24129443 49:0.82465672 50:-0.11953081 51:-0.28847739 52:0.28699279 53:-0.18285225 54:-0.23052625 55:0.089594729 56:-0.11073229 57:-0.53015435 58:0.67498326 59:-0.17429687 60:-0.3818959 61:-0.027927622 62:-0.082019202 63:0.58370709 64:0.5261175 65:-0.1725031 66:-0.15826659 67:0.17436484 68:-0.097563304 69:-0.063548073 70:0.11924323 71:-0.23373401 72:-0.018932002 73:0.077284075 74:-0.21271659 75:-0.34184155 76:0.29415715 77:-0.27689645 78:-0.1936074 79:0.45406789 80:0.20207879 81:0.52881312 82:0.014359796 83:-0.096387304 84:0.22121681 85:-0.34579033 86:0.43211493 87:0.19824493 88:0.18539301 89:0.075390123 90:-0.35068753 91:-0.36103168 92:0.72968507 93:0.23091072 94:-0.12498476 95:0.67076403 96:0.10578918 97:-0.3688851 98:-0.48882315 99:0.014865927 100:0.029383888 #
0.12821235964773184 1:-0.3038916 2:0.030907651 3:0.11662991 4:0.25355041 5:0.31003812 6:-0.72053802 7:-0.12940086 8:0.14506613 9:-0.15691526 10:0.73480761 11:-0.056632668 12:-0.10063476 13:0.074774474 14:-0.41150689 15:0.086171336 16:-0.33673188 17:-0.27078101 18:-0.69056368 19:0.13476859 20:0.48323298 21:-0.3245928 22:0.099343561 23:0.12233647 24:-0.26358411 25:-0.25051913 26:0.083207712 27:0.19281912 28:-0.13253103 29:0.11294613 30:0.0303778 31:-0.1753004 32:0.034403365 33:-0.22359151 34:0.39596009 35:0.47376043 36:0.38854736 37:0.25862399 38:0.10070299 39:0.020211758 40:0.34237477 41:-0.033059429 42:0.41326681 43:-0.24931303 44:0.082102485 45:-0.054778054 46:-0.19926888 47:-0.42829579 48:-0.0063200262 49:-0.099993624 50:0.10049892 51:0.18774791 52:0.55311072 53:0.066616789 54:-0.63116646 55:0.16987346 56:0.25204486 57:-0.611103 58:-0.13951604 59:0.22237048 60:-0.041170735 61:-0.093826719 62:0.013470135 63:-0.29007894 64:-0.31929344 65:0.39979699 66:-0.037422843 67:0.20522363 68:-0.40984029 69:-0.10281011 70:0.41791984 71:0.066431724 72:-0.70330977 73:0.57465845 74:0.37300685 75:0.24360909 76:-0.077349566 77:0.92112494 78:-0.23798607 79:-0.24799682 80:0.89543504 81:-0.062438618 82:-0.33419725 83:-0.44855118 84:0.088244826 85:-0.70407289 86:-0.52688473 87:0.19010323 88:0.4301385 89:-0.024559522 90:0.012749708 91:0.079990499 92:0.51986456 93:-0.066156566 94:-0.4019272 95:0.43735352 96:0.28546506 97:-0.34890002 98:-0.36837688 99:0.070420407 100:-0.13944283 #
0.12821235964773184 1:-0.56518024 2:-0.24893568 3:0.12072097 4:-0.017487245 5:-0.75182819 6:0.25760713 7:-0.085313521 8:0.24314137 9:-0.35185936 10:0.36627179 11:-0.46420184 12:0.0017707169 13:-0.14549498 14:-0.25257531 15:0.30281469 16:-0.70482224 17:-0.16568786 18:-0.040305022 19:0.0017802308 20:0.013863798 21:0.13564463 22:0.57105494 23:-0.21990965 24:-0.38373777 25:0.11167631 26:-0.012118277 27:0.47991106 28:-0.083020531 29:0.26079869 30:0.019657334 31:0.10604115 32:-0.12843974 33:0.14725618 34:-0.20900235 35:0.51115257 36:0.26568332 37:-0.032878269 38:0.042648461 39:-0.022306683 40:0.29817691 41:-0.55796641 42:-0.46288353 43:0.19032149 44:0.6432088 45:-0.42364618 46:-0.38236806 47:0.29999065 48:0.050669905 49:0.37170473 50:-0.3763999 51:0.21800572 52:-0.18870284 53:0.35426879 54:0.43573645 55:0.30944902 56:-0.10403799 57:-0.46785694 58:-0.0083216866 59:0.16943574 60:0.054023836 61:-0.1358685 62:0.18733718 63:-0.25225011 64:0.15284365 65:0.25117555 66:-0.11973277 67:-0.37423065 68:-0.51886225 69:0.1598807 70:-0.38617212 71:-0.30808997 72:-0.27652952 73:0.46768689 74:-0.32967186 75:0.2502645 76:0.037507445 77:0.19803244 78:-0.29000911 79:0.10500662 80:0.08863245 81:0.17245823 82:0.34176296 83:0.18660752 84:-0.045015469 85:-0.1003678 86:0.023871752 87:0.084316522 88:0.27391022 89:0.30688855 90:-0.17791459 91:-0.17385547 92:0.50245935 93:0.016143985 94:-0.54883736 95:0.45984346 96:0.30660319 97:-0.0024939098 98:-0.30965379 99:0.1051906 100:-0.18125412 #
0.12821235964773184 1:-0.3890259 2:0.13081568 3:-0.16175005 4:-0.39438158 5:-0.42551383 6:-0.53060108 7:-0.1831277 8:-0.033387616 9:-0.34937674 10:-0.019784065 11:-0.55400807 12:0.36337402 13:0.12707135 14:-0.12156484 15:0.29822108 16:-0.45734444 17:-0.15895392 18:-0.15647218 19:0.18671739 20:-0.34785652 21:-0.3544457 22:0.21277136 23:-0.22943012 24:-0.13084149 25:-0.16647694 26:0.053167891 27:0.078782305 28:0.39226961 29:0.3774009 30:0.078200854 31:-0.10039958 32:-0.49740279 33:0.15564172 34:0.24262021 35:-0.22267066 36:0.62422717 37:-0.34826463 38:0.056721795 39:0.030865395 40:0.26935786 41:-0.43838069 42:-0.54152161 43:-0.04031251 44:0.42824164 45:-0.17038679 46:-0.078588903 47:0.15352127 48:0.19985488 49:0.46457422 50:0.20387818 51:-0.22298893 52:0.26936686 53:0.33135101 54:-0.46135864 55:0.15203857 56:-0.50906348 57:-0.11799017 58:-0.13799658 59:0.02058298 60:0.1452506 61:-0.18608615 62:0.13662346 63:0.10847 64:0.45927751 65:0.084403493 66:0.20747559 67:0.058465887 68:0.2094909 69:0.46790677 70:-0.62324744 71:0.20377216 72:0.17045869 73:-0.18014415 74:0.21949315 75:0.26930892 76:0.13547601 77:0.46400589 78:-0.12402105 79:0.63788158 80:0.22800739 81:-0.010873136 82:0.12297755 83:0.21993728 84:0.028024066 85:-0.19118021 86:0.13086189 87:-0.10864804 88:-0.013849821 89:0.24135163 90:-0.20766884 91:0.17676581 92:0.92935658 93:0.14635947 94:0.25599319 95:0.41216046 96:-0.090008877 97:-0.032807857 98:0.15836085 99:0.39050609 100:0.06635204 #
-0.12821235964773184 1:0.20292935 2:0.0028372246 3:0.28875342 4:-0.11507353 5:0.076042414 6:-0.20319752 7:-0.42861712 8:-0.0018970148 9:-0.091447979 10:-0.35051209 11:-0.45862871 12:-0.43152422 13:0.020360038 14:-0.20426041 15:0.027891709 16:-0.48656106 17:-0.04351132 18:-0.50821078 19:0.18053643 20:0.079554193 21:-0.51791686 22:0.44729021 23:-0.12538654 24:0.072382621 25:0.29276499 26:0.36550722 27:0.047661263 28:0.10082345 29:-0.091348857 30:-0.11921028 31:-0.30694085 32:0.040713128 33:-0.1562975 34:0.063359037 35:0.091456041 36:0.056763131 37:-0.13417445 38:0.28585997 39:0.17242737 40:0.51903671 41:0.012749038 42:-0.14156517 43:-0.01979808 44:0.039367817 45:-0.31307584 46:-0.25007442 47:0.0088934228 48:-0.17704366 49:0.0038722064 50:0.45199507 51:0.091852695 52:-0.016364513 53:0.28356528 54:-0.06896808 55:0.43178651 56:0.23668006 57:-0.44409561 58:-0.20968603 59:-0.028470304 60:0.22888117 61:-0.44328898 62:0.11492093 63:-0.14690338 64:-0.15741889 65:0.16218546 66:-0.046092916 67:-0.015186071 68:-0.36398759 69:-0.22190858 70:-0.080365442 71:-0.17580254 72:-0.23730926 73:0.89259088 74:0.27749246 75:0.088193268 76:-0.18397397 77:0.078836575 78:-0.24743542 79:0.1249144 80:0.089147463 81:0.01526671 82:-0.24896383 83:-0.034711421 84:0.0015953061 85:-0.45028383 86:-0.12206557 87:0.18242927 88:0.040776994 89:0.081371143 90:-0.15345532 91:0.12113643 92:0.48633125 93:0.13832507 94:-0.090001643 95:0.3801859 96:0.081541531 97:-0.18346125 98:-0.36988437 99:0.049971875 100:0.077216335 #
0.12821235964773184 1:-0.093568794 2:-0.24916111 3:0.1074864 4:-0.36081707 5:-0.35376152 6:-0.21587573 7:-0.54528558 8:0.43446347 9:-0.37826943 10:0.31367916 11:0.14605175 12:-0.084188409 13:0.003332014 14:0.54663825 15:-0.33013451 16:-0.13866208 17:0.040606633 18:0.05005236 19:0.99539304 20:-0.5873993 21:-0.33026046 22:0.64676446 23:-0.26928857 24:-0.40998912 25:0.23776989 26:0.55811113 27:-0.26611182 28:0.029823544 29:0.013077281 30:0.1835994 31:0.20489661 32:0.18681547 33:0.20670429 34:-0.2877844 35:0.17759125 36:-0.66421717 37:-0.2055078 38:0.32504308 39:0.15147965 40:0.43821514 41:-0.21803571 42:-0.26767653 43:-0.1153407 44:-0.25430027 45:-0.29419708 46:0.012533292 47:-0.33521688 48:0.38364488 49:-0.0066188378 50:-0.14973076 51:-0.28298888 52:0.11103725 53:-0.054243285 54:0.10222892 55:-0.034942951 56:0.39999422 57:-0.20063621 58:0.48537093 59:0.20799312 60:0.4620865 61:-0.25743583 62:0.46105745 63:-0.16106501 64:-0.11738475 65:-0.12888163 66:-0.071329057 67:0.1557124 68:-0.35239336 69:-0.4681389 70:0.3287068 71:-0.0083146282 72:-0.48936969 73:0.9121781 74:-0.29038414 75:0.11002108 76:0.076714166 77:0.46965718 78:-0.22307999 79:-0.11180072 80:-0.094528809 81:0.41596746 82:-0.052220058 83:-0.87330025 84:0.1858076 85:-0.29173127 86:-0.047859274 87:0.20186865 88:0.37547311 89:0.1141682 90:0.23652801 91:-0.13037468 92:0.39328799 93:-0.065836303 94:-0.45028403 95:0.33713382 96:0.0040670517 97:-0.21459247 98:0.0056784619 99:-0.066705734 100:-0.030193064 #
-0.12821235964773184 1:-0.032360818 2:-0.1344022 3:-0.11286099 4:-0.056342375 5:-0.49110866 6:-0.22050378 7:-0.28859451 8:0.1334824 9:0.25237501 10:0.47140357 11:0.066343606 12:0.24287014 13:-0.062389534 14:-0.39205176 15:-0.13614006 16:-0.2232334 17:-0.060778633 18:-0.31180754 19:-0.072262667 20:-0.10451858 21:-0.43850112 22:0.36154807 23:-0.40472075 24:-0.26621842 25:0.20631795 26:0.097954936 27:0.084755793 28:0.064523943 29:-0.33528686 30:-0.16775309 31:0.07571955 32:-0.11039506 33:0.054542884 34:-0.0039796517 35:-0.078393653 36:0.16057856 37:0.14870504 38:0.21514587 39:-0.059182048 40:-0.018149316 41:-0.19101445 42:-0.087452717 43:0.26532274 44:-0.0079920357 45:-0.20241004 46:-0.080470659 47:0.25752199 48:0.3762486 49:0.044261284 50:-0.34768209 51:-0.19681361 52:0.56279659 53:0.0044611921 54:-0.12164039 55:-0.39093786 56:0.3464804 57:-0.50024509 58:-0.087175436 59:0.23480675 60:0.23211968 61:-0.048329853 62:0.05635912 63:-0.43814456 64:0.17016637 65:0.019593893 66:-0.066808976 67:0.1237996 68:-0.15845834 69:-0.5190714 70:0.16521251 71:0.045391224 72:-0.30231315 73:0.51081419 74:0.086991601 75:-0.23593059 76:0.23662423 77:0.25760391 78:-0.058434092 79:-0.26507977 80:0.025229968 81:-0.10821035 82:-0.028795574 83:-0.38922811 84:0.080357112 85:-0.17570384 86:0.010473951 87:-0.1475547 88:0.026898414 89:0.29104424 90:0.065315083 91:0.37507173 92:0.15915726 93:-0.049453266 94:-0.057939243 95:0.14775237 96:-0.14155127 97:-0.46965525 98:-0.065034643 99:0.36389598 100:0.18382041 #
-0.12821235964773184 1:-0.08994633 2:0.069864914 3:0.57430375 4:-0.157371 5:-0.24097006 6:-0.19669025 7:0.072004102 8:0.069374368 9:0.22945446 10:0.40201136 11:0.21010368 12:0.31553558 13:-0.38901269 14:-0.33805349 15:-0.14152552 16:-0.49382988 17:-0.082399495 18:-0.22276542 19:0.046288699 20:-0.022118423 21:-0.25749993 22:0.3476367 23:-0.044471476 24:-0.19521971 25:0.33031052 26:0.22023831 27:-0.21007432 28:-0.10771978 29:0.0051563224 30:0.12333874 31:0.41552764 32:0.35927352 33:0.1996458 34:-0.13023365 35:0.055321764 36:0.067922994 37:0.12488608 38:-0.0374084 39:-0.14511226 40:0.0073418613 41:0.0089889402 42:0.25662944 43:-0.11501329 44:-0.1970077 45:-0.67278975 46:-0.086209148 47:0.18315192 48:0.15190487 49:0.64280355 50:-0.22725478 51:-0.19661361 52:0.13994725 53:0.16991462 54:0.048545819 55:-0.42760372 56:-0.13009477 57:-0.30328241 58:0.14896896 59:0.41648847 60:0.29507029 61:0.20436105 62:-0.27706641 63:-0.39044791 64:-0.10608647 65:0.097220659 66:-0.11343235 67:-0.10171013 68:-0.2022461 69:-0.13520965 70:0.030529732 71:-0.013697966 72:-0.22613099 73:0.50705999 74:-0.19112892 75:-0.089846008 76:0.25634891 77:0.28954437 78:-0.37761796 79:0.14728417 80:0.50307769 81:0.072182141 82:-0.34123003 83:-0.92512661 84:0.40938267 85:-0.075928591 86:0.37198931 87:-0.17170352 88:0.66599268 89:-0.12097076 90:-0.014576986 91:0.15851186 92:0.077946715 93:0.044443958 94:0.16536704 95:0.25881967 96:-0.033480093 97:-0.22053175 98:0.50125223 99:0.26535422 100:0.39722827 #
-0.12821235964773184 1:-0.059808683 2:0.15357059 3:0.12480273 4:-0.19566998 5:-0.30144131 6:-0.46120661 7:-0.31934506 8:0.15954489 9:-0.00358772 10:0.32991305 11:-0.36287501 12:0.077878937 13:0.098222189 14:-0.082822628 15:0.019186135 16:0.20431624 17:-0.10155436 18:-0.29316974 19:-0.025177516 20:-0.11258263 21:-0.15233374 22:0.46059859 23:-0.29111329 24:0.26259151 25:0.02247382 26:0.18096022 27:-0.076855458 28:-0.078582413 29:-0.11031474 30:0.056466691 31:-0.072288804 32:-0.33105141 33:0.13964394 34:0.31477013 35:-0.22446808 36:0.13071272 37:0.0017277382 38:0.15301786 39:0.22549956 40:0.1800898 41:0.22109096 42:-0.23958187 43:0.13702635 44:-0.056038119 45:-0.31708613 46:-0.27453732 47:-0.14339516 48:0.31020063 49:0.13403648 50:-0.022808108 51:-0.031725902 52:0.32069567 53:0.074354544 54:-0.50178975 55:-0.19261107 56:0.16516304 57:-0.086694166 58:0.075434856 59:0.069418184 60:0.36554337 61:-0.053252019 62:0.20406903 63:-0.22183332 64:0.18700702 65:-0.11388347 66:0.36929014 67:-0.018322011 68:-0.10085338 69:-0.51686084 70:-0.019739185 71:-0.097133718 72:-0.039046317 73:0.58750576 74:-0.19411492 75:-0.24390312 76:0.050977923 77:0.095958695 78:0.053302649 79:0.088276528 80:0.046481494 81:0.1553115 82:0.10924401 83:-0.60332972 84:0.15875037 85:-0.1579663 86:-0.25500947 87:0.3051666 88:-0.27012035 89:0.32368785 90:0.23916921 91:-0.034903578 92:0.354673 93:-0.18187952 94:-0.31067529 95:0.42065307 96:0.12497005 97:-0.48103431 98:-0.12835324 99:0.39958027 100:-0.12287492 #
-0.12821235964773184 1:-0.19311152 2:0.15457126 3:-0.02432614 4:0.12584519 5:-0.078498624 6:-0.23073456 7:-0.33438748 8:-0.088021345 9:0.153322 10:0.51072848 11:-0.27013078 12:0.43199244 13:-0.11803987 14:-0.46598634 15:-0.31147629 16:-0.52516448 17:-0.27899086 18:-0.77848762 19:-0.13830814 20:-0.25479713 21:-0.3091166 22:-0.067466266 23:-0.3650732 24:0.099488325 25:-0.0098255184 26:-0.028813193 27:0.15911458 28:0.18543063 29:-0.30080283 30:-0.19202645 31:-0.19679616 32:-0.076516427 33:-0.50597095 34:0.11406286 35:0.041948091 36:0.13918017 37:-0.23154896 38:-0.19234279 39:-0.36004996 40:0.26629072 41:0.01081324 42:0.051220827 43:0.11262459 44:0.41791669 45:-0.57219529 46:-0.33179906 47:-0.19384982 48:0.048452627 49:0.073076963 50:-0.082792081 51:-0.24251594 52:0.36901194 53:0.40371233 54:-0.71504438 55:0.10106522 56:0.3327843 57:-0.27462089 58:-0.20672631 59:0.11429011 60:0.40934113 61:-0.36894107 62:0.10774165 63:-0.4164533 64:0.36608255 65:0.35927427 66:-0.1287812 67:-0.4200865 68:-0.14818762 69:-0.38673651 70:-0.0857412 71:-0.10364793 72:-0.26910698 73:0.17975208 74:0.2746172 75:-0.11584067 76:-0.14768612 77:0.37334052 78:-0.23228008 79:0.16327403 80:0.49600253 81:-0.14607967 82:-0.15747871 83:-0.51483887 84:0.1224098 85:-0.53682423 86:-0.025944971 87:0.082662478 88:-0.076865487 89:0.21200798 90:0.11044253 91:0.25373021 92:-0.0099580316 93:0.025318597 94:-0.16285187 95:0.04376252 96:0.43974751 97:-0.25367576 98:-0.55642223 99:-0.082996562 100:0.038301814 #
-0.12821235964773184 1:-0.14189765 2:-0.18715248 3:-0.09090694 4:0.37059844 5:-0.3134318 6:-0.24130647 7:-0.19685248 8:0.057678223 9:0.17780186 10:0.38212302 11:0.071251534 12:0.24553369 13:-0.3508271 14:-0.060255565 15:-0.14695543 16:-0.51777351 17:-0.1042076 18:-0.49699032 19:0.024972528 20:-0.12882084 21:-0.29519209 22:0.17089184 23:-0.61285144 24:-0.35266307 25:0.23885797 26:0.27030492 27:-0.13433337 28:0.28905204 29:0.57067358 30:0.3769699 31:0.025969947 32:-0.25720918 33:0.10325325 34:-0.11299724 35:-0.1492684 36:0.10578285 37:0.015180589 38:0.27177128 39:-0.49987218 40:0.56453782 41:-0.12177121 42:0.13526824 43:0.10143146 44:0.0037722718 45:-0.74878722 46:-0.075862505 47:-0.028652377 48:0.21534051 49:0.39989185 50:-0.027341958 51:0.090618081 52:0.13536502 53:-0.017667053 54:-0.32376286 55:-0.083731733 56:0.24110425 57:-0.28492495 58:-0.38455117 59:0.058620188 60:0.021249 61:0.31462562 62:0.25482279 63:-0.074434094 64:0.16338064 65:0.38678941 66:-0.07113751 67:0.023945877 68:-0.34805498 69:-0.1160221 70:0.032515135 71:0.016345134 72:0.017196409 73:0.67527622 74:0.35557202 75:0.025552515 76:-0.0013183571 77:0.57850212 78:-0.1126876 79:-0.10839967 80:0.14457276 81:-0.26206404 82:0.14787827 83:-0.26104864 84:0.59160411 85:-0.094296552 86:-0.1100696 87:0.16788936 88:0.050168648 89:0.13109364 90:-0.27572003 91:0.06883461 92:0.35589311 93:0.19562548 94:-0.10892855 95:0.35835567 96:-0.14421387 97:-0.073269129 98:0.11524814 99:0.12044666 100:0.44391873 #
-0.029215702898493106 1:-0.21088238 2:-0.35327989 3:-0.11552528 4:-0.011560666 5:-0.094801441 6:-0.24971357 7:-0.20710766 8:-0.17183007 9:-0.079860553 10:0.43906286 11:-0.2579059 12:0.43799135 13:-0.29443666 14:0.10644999 15:0.25211805 16:0.014988031 17:0.27549088 18:-0.20880108 19:0.30543619 20:-0.23226078 21:-0.41368845 22:0.38961953 23:-0.27448463 24:0.17792337 25:-0.15272117 26:0.43433827 27:-0.074230909 28:0.18551418 29:-0.12924208 30:-0.18228547 31:-0.39087069 32:-0.11508103 33:-0.0088727288 34:-0.27001595 35:0.063242517 36:-0.040454324 37:0.31201518 38:0.070331208 39:-0.26099882 40:0.069942929 41:-0.0077140136 42:-0.078388438 43:0.15736526 44:0.22590929 45:-0.39900011 46:-0.18502763 47:-0.018144008 48:-0.011231209 49:0.72074217 50:-0.11949572 51:-0.2597532 52:0.060193773 53:-0.078232065 54:-0.14618431 55:0.011644275 56:0.0040509012 57:-0.029577766 58:0.043659467 59:0.19595571 60:0.063297093 61:-0.58735871 62:-0.05233996 63:-0.21085706 64:-0.16429727 65:0.098397449 66:-0.20537192 67:-0.14933039 68:-0.44554687 69:-0.073449835 70:0.27908784 71:-0.048955925 72:-0.16554587 73:0.16733363 74:0.035406463 75:-0.097213484 76:-0.022916298 77:0.49005076 78:0.62318546 79:0.1766324 80:-0.017735671 81:-0.029311884 82:-0.19760007 83:-0.2250406 84:-0.14042047 85:0.12530221 86:-0.31880563 87:0.21251136 88:0.030887082 89:0.38038644 90:0.24342723 91:0.070778482 92:0.38388091 93:-0.23928298 94:-0.1342755 95:0.22818792 96:0.074204512 97:-0.095042273 98:-0.020383872 99:-0.11061484 100:-0.17652912 #
-0.12821235964773184 1:-0.45244688 2:-0.2285971 3:-0.033149064 4:0.45229331 5:-0.1996859 6:-0.009998966 7:-0.23955272 8:-0.038047422 9:0.083117321 10:-0.10228771 11:-0.47039828 12:-0.11500178 13:-0.045160066 14:0.13506562 15:0.018561058 16:-0.020407647 17:-0.2698611 18:-0.049215093 19:0.10798647 20:-0.0074131074 21:-0.23998125 22:0.21103263 23:-0.20824777 24:-0.30121833 25:-0.22981633 26:0.40710264 27:0.38978764 28:-0.0082929758 29:0.27422684 30:0.020335607 31:-0.20799792 32:-0.02416281 33:0.15289983 34:0.18586746 35:0.51748878 36:0.24299674 37:0.038629692 38:-0.13892767 39:-0.2492574 40:0.18149135 41:-0.18998218 42:0.21192315 43:0.30417591 44:0.15595205 45:-0.078090586 46:-0.099067435 47:0.16526105 48:0.15439211 49:0.57996607 50:9.7331922e-006 51:0.36369914 52:0.22913398 53:-0.062587425 54:-0.076626167 55:-0.2603482 56:0.1806996 57:-0.52543473 58:0.072912738 59:0.22499728 60:0.31964418 61:0.17183819 62:0.075300582 63:-0.16874033 64:-0.13684328 65:0.42828304 66:-0.07320755 67:0.28017768 68:-0.17886998 69:-0.27647176 70:-0.10567307 71:-0.12746501 72:-0.22904934 73:0.32385993 74:0.29123572 75:-0.053808354 76:0.36849469 77:0.52856791 78:-0.079838648 79:-0.076585822 80:0.21339284 81:0.0074462597 82:-0.23939867 83:-0.026806593 84:0.15431783 85:-0.20209375 86:-0.31221208 87:-0.36133617 88:-0.16427644 89:-0.10667976 90:-0.2983909 91:0.54671586 92:0.63961345 93:0.33763167 94:-0.26375386 95:0.021471564 96:0.055350717 97:0.12195451 98:0.040157855 99:0.21932068 100:0.0015900154 #
-0.12821235964773184 1:-0.17097211 2:0.21909767 3:-0.38819835 4:-0.10271399 5:-0.37795451 6:0.00075627008 7:0.03701986 8:-0.014230103 9:-0.18109722 10:-0.099537566 11:-0.62196809 12:-0.28071296 13:-0.02870349 14:0.1248879 15:0.27157447 16:-0.24295184 17:-0.18318038 18:-0.15640616 19:-0.045223854 20:-0.12315976 21:-0.44317168 22:0.20524552 23:-0.14049241 24:-0.19280532 25:0.14410207 26:-0.13036509 27:0.59573996 28:0.14340191 29:-0.50407523 30:-0.23098682 31:-0.18636902 32:0.35086274 33:-0.18324445 34:-0.23362994 35:-0.25551552 36:0.35652006 37:0.20945774 38:-0.35305923 39:0.27471641 40:0.11331221 41:0.56589073 42:0.020573081 43:0.1742696 44:0.25843692 45:-0.39618623 46:-0.26816785 47:0.15121774 48:-0.22217837 49:0.57194388 50:0.33521831 51:-0.32000035 52:0.20560439 53:-0.34490216 54:0.18774176 55:-0.038290463 56:-0.32604125 57:-0.6376034 58:-0.11354142 59:0.086087212 60:0.060978938 61:-0.34890363 62:-0.044006512 63:-0.27779609 64:-0.40595889 65:0.39016223 66:-0.0035412279 67:0.086118437 68:-0.032837179 69:-0.14050598 70:0.22054102 71:-0.15150981 72:-0.13082802 73:0.64093858 74:-0.19864705 75:0.028418019 76:0.55431885 77:0.21126926 78:0.077403933 79:0.57912809 80:0.1728773 81:-0.13653518 82:-0.11804879 83:-0.26761168 84:0.29831997 85:-0.18791899 86:-0.19812892 87:-0.24369083 88:-0.83218628 89:-0.10046214 90:-0.23750395 91:0.1383737 92:0.8375544 93:0.45338076 94:0.32849929 95:0.603203 96:0.0042260042 97:-0.29357034 98:-0.9356038 99:0.00016127426 100:-0.28361383 #
0.12821235964773184 1:0.010192543 2:-0.213955 3:-0.4485749 4:0.57329053 5:-0.60273439 6:-0.1269175 7:-0.27656528 8:0.1272313 9:0.1967909 10:-0.088089868 11:-0.20174456 12:-0.28015605 13:0.049912866 14:-0.0085930992 15:0.010283327 16:-0.30949634 17:-0.037653711 18:-0.55179828 19:-0.17669961 20:-0.40665233 21:0.045306459 22:-0.31917921 23:0.15487595 24:0.091133274 25:0.44736716 26:0.57176757 27:0.4958798 28:-0.14852045 29:0.17555794 30:0.1040832 31:0.28617337 32:-0.11546832 33:-0.0043001296 34:-0.012710374 35:0.47680405 36:0.0061406638 37:-0.10783763 38:-0.069328144 39:-0.072652869 40:0.38729745 41:-0.070298113 42:-0.020515569 43:0.20560001 44:-0.226871 45:-0.64031607 46:-0.4514904 47:-0.43322352 48:0.067403771 49:0.50564724 50:0.0011332469 51:-0.045695242 52:0.18004757 53:-0.14710033 54:-0.36783847 55:-0.019293416 56:0.40376121 57:-0.11083901 58:0.26844844 59:0.39185384 60:-0.16425776 61:0.10780185 62:-0.051597469 63:0.12079199 64:0.36333364 65:0.070295051 66:0.0074321502 67:0.50593841 68:0.0024289512 69:-0.10877441 70:-0.46572033 71:-0.38578537 72:-0.032177817 73:0.47207379 74:-0.0017851645 75:0.074360289 76:0.090420909 77:-0.13396043 78:-0.32414439 79:0.46496558 80:0.27095008 81:-0.48624089 82:-0.10463627 83:0.10081524 84:0.018954361 85:-0.58756262 86:-0.10442597 87:0.1079582 88:-0.025347007 89:0.031578396 90:-0.20427977 91:-0.20967025 92:0.42651516 93:-0.022762522 94:0.12081311 95:-0.14524849 96:-0.052063603 97:-0.28387994 98:-0.5810619 99:-0.14801468 100:0.095016681 #
0.051292771403509706 1:-0.057747778 2:-0.040443506 3:0.010475292 4:0.1963235 5:0.13747965 6:0.026022607 7:-0.04106148 8:0.19976279 9:0.20472099 10:0.051847115 11:-0.37601957 12:0.5656352 13:-0.19499008 14:-0.26962176 15:0.21695533 16:-0.33608535 17:0.130593 18:0.15934405 19:0.47685423 20:-0.49776208 21:-0.38027892 22:0.18077736 23:-0.096080415 24:0.039501663 25:-0.23456687 26:0.15150332 27:0.0068648318 28:0.52476937 29:0.085120715 30:0.36253691 31:-0.052041631 32:-0.43775365 33:-0.36652583 34:-0.022376055 35:0.32540727 36:0.22803029 37:-0.64015877 38:0.25228894 39:-0.23163182 40:0.32350293 41:0.074883141 42:-0.53982425 43:-0.1398952 44:-0.043672409 45:-0.34031376 46:-0.3189854 47:-0.17611292 48:-0.25706717 49:0.068499327 50:0.25769323 51:-0.47184473 52:-0.10509622 53:0.12015071 54:-0.073137321 55:0.061829068 56:-0.025035717 57:0.12549676 58:-0.1691732 59:-0.12976745 60:-0.3239156 61:-0.26906195 62:0.095502213 63:-0.23075414 64:0.063375451 65:-0.1212508 66:0.15371397 67:0.085552283 68:-0.22956055 69:0.10548113 70:-0.12881798 71:-0.14871101 72:-0.057986982 73:0.18154657 74:0.24116038 75:0.19928575 76:-0.043035004 77:0.28425369 78:-0.10508613 79:0.29159969 80:0.049722508 81:-0.15212381 82:0.15737605 83:-0.39985734 84:0.34575108 85:-0.39879715 86:-0.19053149 87:0.26202545 88:0.068784781 89:0.10383077 90:-0.15821214 91:0.41252005 92:0.35690221 93:0.29884645 94:0.065524153 95:0.67236382 96:-0.31459111 97:-0.0077887005 98:0.0069620269 99:0.37018234 100:-0.21114139 #
0.040566383299743845 1:0.47103029 2:0.045840055 3:-0.45702806 4:0.12603855 5:-0.21212478 6:-0.018904751 7:-0.28774446 8:0.063557848 9:-0.18156008 10:0.26280117 11:0.046204347 12:0.15705752 13:0.063900471 14:-0.17939916 15:-0.041996397 16:-0.29253566 17:0.37959146 18:-0.1182531 19:0.38611817 20:-0.15730554 21:-0.60397953 22:0.46117055 23:-0.099751025 24:0.4245528 25:0.1800735 26:0.26638502 27:0.44359216 28:0.26285887 29:0.18934317 30:-0.11957446 31:0.053390663 32:0.19006675 33:-0.17095916 34:0.020816155 35:0.27885929 36:-0.38436916 37:-0.18345061 38:-0.097612731 39:-0.22333573 40:0.40752116 41:-0.18387897 42:0.008047943 43:0.32637051 44:-0.23315781 45:-0.50997496 46:0.13625085 47:0.10720977 48:-0.32855526 49:0.10164005 50:-0.24281496 51:-0.25294918 52:0.47409117 53:0.27206945 54:-0.19020504 55:-0.19111882 56:0.17637116 57:-0.088927157 58:-0.86404073 59:-0.17561421 60:-0.052343454 61:-0.16404526 62:0.30744615 63:-0.3579936 64:0.12916054 65:-0.020423444 66:-0.085579716 67:-0.1334247 68:0.15060474 69:0.21015352 70:0.28137895 71:-0.41049814 72:0.21750273 73:0.53861213 74:0.17075634 75:0.38721681 76:-0.048081368 77:0.42726699 78:-0.073847629 79:0.020152438 80:-0.099266641 81:-0.13134627 82:0.074623145 83:-0.059421308 84:-0.065740399 85:-0.089829221 86:-0.53617328 87:-0.072416328 88:-0.031909365 89:0.21319009 90:0.20150846 91:-0.26262307 92:0.24841766 93:0.34099287 94:-0.30383527 95:0.72463113 96:-0.059621718 97:-0.45559156 98:-0.30486679 99:0.51463568 100:-0.20346457 #
-0.12821235964773184 1:0.23442097 2:-0.63242769 3:0.8415035 4:-0.56660992 5:0.35052815 6:0.0012870074 7:-0.21933551 8:-0.61620116 9:-0.15003009 10:0.25580752 11:-0.61026829 12:-0.67201346 13:0.3415949 14:0.14804807 15:0.13588978 16:-0.87434691 17:-0.32989544 18:0.19816151 19:0.56437093 20:-0.773175 21:-0.29206628 22:0.058579478 23:0.16239712 24:0.90496451 25:0.1446889 26:0.41340402 27:0.79155451 28:-0.035857577 29:-0.12466251 30:0.29249856 31:0.086483069 32:0.20343925 33:0.054690227 34:0.14608404 35:-0.050978512 36:-0.095522173 37:-0.061707683 38:1.1488197 39:0.67731875 40:0.29851502 41:0.31446058 42:0.54118186 43:-0.018634729 44:0.93042558 45:-0.34386232 46:-0.31769022 47:-0.52350724 48:-0.70606494 49:0.4134402 50:0.19855173 51:-0.27335462 52:0.15662777 53:0.10300519 54:0.60359138 55:1.0106298 56:0.30300924 57:0.0096353488 58:0.31578004 59:0.10955279 60:0.11173315 61:0.013089606 62:-0.68731958 63:0.48693779 64:-0.20152217 65:0.13542634 66:-0.10217686 67:-0.49160501 68:0.12135568 69:0.16665763 70:-0.60569787 71:-0.0037326806 72:-1.2867358 73:1.1429846 74:-0.29595873 75:-0.049133625 76:0.05819371 77:0.82502723 78:-0.13832916 79:0.2281314 80:0.67845482 81:-0.12764215 82:-0.43313724 83:-1.6701535 84:-0.59831375 85:-0.98163897 86:0.63463467 87:0.076663889 88:0.94189924 89:0.1110923 90:-0.79065758 91:-0.33975631 92:0.26523134 93:0.22802953 94:0.22034954 95:0.85314667 96:0.21690133 97:-0.13699867 98:0.17919253 99:-0.27811873 100:-0.2781128 #
-0.055705379024746607 1:-0.64182365 2:0.013544015 3:0.47449392 4:-0.32535881 5:0.10303611 6:0.1322414 7:-0.44328114 8:-0.0022562882 9:-0.29878372 10:0.35913092 11:-0.34756985 12:-0.31161806 13:0.21536516 14:-0.19223943 15:0.038471822 16:0.14415938 17:-0.21789798 18:0.22994994 19:0.38344249 20:-0.22334796 21:0.18513571 22:0.3139773 23:-0.1489566 24:-0.14203133 25:0.022268096 26:0.737279 27:0.073413327 28:-0.026926585 29:0.4461053 30:-0.20063506 31:-0.11021045 32:0.06270165 33:-0.26962045 34:0.28766146 35:0.032866064 36:0.25610334 37:0.58623439 38:0.077628471 39:-0.36784253 40:0.40027744 41:0.17312275 42:0.194793 43:0.048695251 44:0.066400476 45:-0.29575539 46:-0.49493003 47:0.4467994 48:-0.20491922 49:0.76558417 50:0.31373164 51:-0.16019043 52:0.4870078 53:0.21348466 54:-0.1168856 55:-0.15946874 56:-0.2144074 57:-0.81624937 58:0.54700381 59:0.14856215 60:0.18476176 61:-0.35070297 62:-0.12787218 63:-0.32223681 64:-0.22473842 65:0.56067997 66:0.48069245 67:0.13009813 68:-0.24235384 69:-0.38820499 70:0.37452987 71:0.29164502 72:-0.28463015 73:0.87544042 74:-0.087996125 75:0.63434744 76:0.48184848 77:0.71632886 78:0.02446557 79:0.013225772 80:0.2704007 81:0.29216528 82:0.1620819 83:-0.17785051 84:0.15661187 85:0.23716733 86:-0.16036621 87:-0.63313913 88:-0.49239856 89:-0.7598595 90:-0.1165951 91:0.032477699 92:0.50901926 93:0.71620256 94:0.039468102 95:0.6969502 96:-0.028691588 97:-0.46534595 98:-0.55901003 99:-0.02637586 100:-0.55991006 #
-0.12821235964773184 1:0.10226399 2:-0.12752195 3:0.10121622 4:-0.44985828 5:0.10292841 6:0.055343557 7:-0.11809661 8:0.42698243 9:-0.2843121 10:0.350815 11:-0.044420011 12:0.072218932 13:0.10150738 14:0.26276073 15:-0.051386766 16:-0.32448083 17:0.08908917 18:0.19953419 19:-0.04611519 20:-0.11042182 21:-0.2794897 22:0.19175465 23:-0.081468202 24:-0.18994637 25:0.1377406 26:0.50594312 27:0.28878313 28:-0.17084606 29:-0.18773115 30:-0.49127579 31:0.097045608 32:-0.23125941 33:-0.22548126 34:0.52495474 35:-0.33302236 36:-0.066822067 37:0.032343227 38:-0.43107086 39:-0.016391739 40:0.12860043 41:0.041499604 42:-0.37322596 43:-0.26913059 44:-0.15332776 45:-0.1533296 46:-0.29198217 47:-0.1492687 48:-0.14180151 49:0.14398684 50:-0.030081067 51:-0.4618642 52:0.49248043 53:-0.029187329 54:-0.15426002 55:-0.073018916 56:-0.13286625 57:-0.6255874 58:0.39710739 59:0.30615839 60:-0.0017173936 61:-0.50938332 62:0.020552412 63:0.013441573 64:0.14127244 65:-0.10967614 66:-0.20306268 67:0.13878001 68:-0.21270028 69:-0.30038932 70:0.041725226 71:-0.46948993 72:-0.23364599 73:0.87379009 74:-0.27547985 75:0.40547934 76:-0.075231537 77:0.10129251 78:0.054729253 79:0.12594324 80:-0.0091393925 81:0.97443658 82:0.28689888 83:0.042722918 84:-0.014745118 85:-0.45464557 86:0.083823353 87:-0.057229172 88:-0.098527715 89:-0.13774271 90:-0.058099445 91:0.21937779 92:0.37565115 93:-0.35701409 94:-0.27805936 95:0.50857824 96:0.17679842 97:-0.21138149 98:-0.56164908 99:0.23301302 100:-0.274928 #
-0.12821235964773184 1:-0.10062551 2:-0.32732651 3:0.14929979 4:-0.067110367 5:0.091766559 6:0.16115674 7:0.28227025 8:0.17707057 9:-0.044943552 10:0.14972863 11:-0.34130302 12:0.12071171 13:0.073100097 14:-0.018164098 15:0.37589169 16:-0.22980832 17:0.19871724 18:0.28610721 19:0.50574803 20:0.099827759 21:-0.41053283 22:0.43807676 23:-0.087343916 24:0.5275923 25:0.34933496 26:0.25826946 27:0.46682692 28:0.18111402 29:-0.1727099 30:-0.034530189 31:-0.065435112 32:-0.1660274 33:0.16964281 34:-0.45341513 35:0.14952275 36:0.36141896 37:-0.02421171 38:-0.1428593 39:0.43743047 40:0.7777347 41:0.072181545 42:-0.4624452 43:-0.10528678 44:-0.16900602 45:0.17573875 46:-0.1405727 47:-0.0529995 48:-0.31371576 49:0.61512214 50:-0.17675218 51:-0.0086219087 52:0.23550379 53:0.14730498 54:-0.4309631 55:0.62333304 56:-0.15683492 57:-0.096463338 58:0.35879257 59:0.24902797 60:-0.15981568 61:-0.38836905 62:0.24823457 63:0.12814608 64:0.38094825 65:0.011861094 66:-0.28257167 67:-0.26631823 68:-0.056088503 69:-0.064979911 70:-0.10898292 71:-0.098185323 72:0.061315086 73:0.71416283 74:0.11871568 75:0.3046062 76:0.18050325 77:0.3117995 78:-0.26202521 79:0.2055224 80:-0.079235777 81:0.22548576 82:0.1017053 83:-0.073271208 84:-0.12924451 85:-0.45412007 86:0.14736463 87:0.081907749 88:0.20263724 89:0.29021126 90:-0.049715593 91:-0.20376427 92:0.25786674 93:0.32015666 94:0.23695335 95:0.50583994 96:-0.17245111 97:-0.75873351 98:-0.19051534 99:0.35058859 100:-0.13017789 #
0.12821235964773184 1:-0.039507225 2:0.42018527 3:0.50566649 4:0.067766324 5:-0.33851466 6:-0.53115803 7:-0.51872295 8:-0.065925159 9:-0.040446561 10:-0.44394875 11:0.068553127 12:-0.028936826 13:-0.14358689 14:-0.60374886 15:0.088052258 16:-0.63152093 17:-0.58305609 18:-0.56427258 19:0.0990768 20:-0.02574569 21:0.048054758 22:0.36195117 23:-0.32965595 24:-0.24814956 25:0.033874307 26:0.2604965 27:-0.046530493 28:0.43012369 29:0.13392934 30:-0.18751162 31:-0.083800808 32:-0.22141875 33:0.11870163 34:-0.46876988 35:0.41175655 36:-0.48536909 37:0.23003374 38:0.58971077 39:-0.1568009 40:0.27007163 41:0.12752765 42:-0.16968501 43:0.64336753 44:0.010924572 45:-0.51967567 46:-0.10047115 47:0.14518377 48:-0.15471229 49:0.39163452 50:-0.15609273 51:0.02529794 52:0.49279204 53:-0.17843655 54:-0.3753897 55:-0.56917459 56:0.5388186 57:-0.2826291 58:-0.51061922 59:0.23220055 60:0.44829762 61:0.6374523 62:0.16271707 63:-0.096179299 64:0.29933533 65:0.12292177 66:-0.099590607 67:0.19997025 68:-0.5328604 69:0.145523 70:-0.49090943 71:-0.015502403 72:0.20397343 73:0.31002861 74:-0.0097704241 75:0.73882276 76:-0.19693987 77:0.52958578 78:-0.20480752 79:-0.063259892 80:0.10838357 81:-0.53070968 82:-0.092487372 83:-0.71720654 84:0.46112511 85:-0.61215967 86:0.2896983 87:-0.19168746 88:-0.11175793 89:0.2009559 90:-0.10710841 91:-0.23571131 92:0.47601682 93:0.14533256 94:-0.067822039 95:0.37072301 96:0.25532031 97:-0.39571825 98:0.18694539 99:0.15513442 100:0.73204815 #
-0.12821235964773184 1:-0.11896206 2:-0.16869001 3:0.056038715 4:-0.099523239 5:-0.16809875 6:-0.10845584 7:-0.14041869 8:0.185992 9:-0.22433427 10:0.48997548 11:-0.043558925 12:-0.21687996 13:0.042260136 14:0.25585613 15:0.046381202 16:-0.13701279 17:0.018508 18:-0.10634679 19:0.046698909 20:-0.50128615 21:0.12990822 22:0.20379868 23:-0.12327302 24:-0.21178973 25:0.12730555 26:0.19548401 27:0.066285811 28:0.18575613 29:-0.11623237 30:-0.083402008 31:-0.17716853 32:0.16737744 33:-0.34929365 34:-0.12327668 35:0.16832654 36:0.02670333 37:0.10613748 38:-0.03806068 39:-0.19242308 40:0.38758394 41:-0.11350799 42:-0.18490024 43:-0.14349195 44:0.20739093 45:-0.16756268 46:-0.27678186 47:0.16912535 48:0.14909793 49:0.63051212 50:-0.036448248 51:0.019072251 52:0.24033342 53:-0.093142807 54:-0.48774344 55:-0.13292198 56:0.23742573 57:-0.2106905 58:-0.18503414 59:-0.16202693 60:0.028144063 61:-0.33802542 62:-0.22915243 63:-0.10045794 64:-0.094380409 65:0.27599025 66:0.13439722 67:-0.15797812 68:-0.5607515 69:-0.11295921 70:-0.14019208 71:-0.13517503 72:-0.34226862 73:0.57221341 74:0.030361507 75:0.20692906 76:0.69723177 77:0.37601337 78:-0.20358959 79:-0.012841465 80:0.0028816427 81:-0.027080584 82:-0.11988987 83:-0.17857563 84:0.076972112 85:-0.14582719 86:0.13507342 87:-0.42683125 88:-0.43455791 89:-0.18804988 90:0.16109504 91:-0.1003799 92:0.38333428 93:0.17371494 94:-0.1290527 95:0.4457283 96:0.076543316 97:-0.33321187 98:-0.3245289 99:0.35334951 100:-0.16730008 #
0.12821235964773184 1:-0.36379308 2:0.40868422 3:0.14611638 4:0.11349576 5:-0.39953715 6:-0.61040592 7:-0.20542933 8:0.10881047 9:0.10865646 10:0.0035967706 11:0.22356702 12:0.43000731 13:-0.11940744 14:-0.43296543 15:-0.036435276 16:-0.53614378 17:-0.37567112 18:-0.40754458 19:0.14361425 20:-0.30741677 21:-0.32213804 22:0.33204636 23:-0.16728643 24:-0.12260106 25:0.18191902 26:-0.090759203 27:0.23784487 28:0.40781093 29:0.45703256 30:0.096891411 31:0.30316195 32:0.0047379327 33:-0.1065899 34:0.14759403 35:0.10165469 36:-0.19697665 37:0.075050317 38:-0.33287933 39:0.19879971 40:-0.40063813 41:-0.0091485623 42:-0.40057272 43:-0.02161767 44:0.32979804 45:-0.40121812 46:-0.048969172 47:0.43553448 48:-0.58410925 49:0.092824124 50:0.11937702 51:0.33028233 52:-0.16640033 53:-0.18085991 54:-0.56955171 55:-0.25944984 56:0.011781765 57:-0.46843606 58:-0.45585093 59:-0.043790303 60:0.11994848 61:-0.037774857 62:0.0087903198 63:-0.16638713 64:0.11509738 65:0.14181224 66:-0.069919072 67:-0.15982811 68:-0.20670158 69:0.23041783 70:-0.14174244 71:0.079690903 72:-0.013760962 73:0.07975357 74:0.1628488 75:0.13198937 76:-0.21090613 77:0.71000361 78:-0.082183883 79:0.1689686 80:0.48037365 81:0.0021175831 82:-0.076969087 83:-0.4281497 84:-0.32057276 85:-0.54384392 86:-0.026211601 87:-0.15368269 88:0.25220615 89:-0.039614953 90:0.28520986 91:0.035023052 92:0.38369501 93:0.059896369 94:0.19352517 95:0.3793098 96:-0.10171407 97:-0.024547983 98:0.013397805 99:0.46307221 100:0.031394448 #
0.12821235964773184 1:-0.19600673 2:0.12131549 3:0.33457065 4:0.24276452 5:-0.31166446 6:0.40250006 7:-0.14657789 8:-0.15702198 9:0.077678442 10:-0.11456701 11:-0.30048808 12:-0.14309406 13:-0.067057095 14:0.11651068 15:0.28135186 16:-0.16572425 17:0.07439667 18:-0.4336372 19:-0.17665873 20:-0.44500056 21:-0.37381449 22:0.89502597 23:-0.48872998 24:0.11151166 25:-0.30685177 26:0.11485966 27:0.18088944 28:0.16442421 29:0.21116182 30:0.32222614 31:-0.12292542 32:0.18279442 33:-0.017244486 34:-0.14810424 35:0.24221991 36:0.10951889 37:-0.14006731 38:0.15618992 39:0.015232117 40:0.42316797 41:-0.064067796 42:-0.30314955 43:0.27537677 44:-0.15888487 45:-0.077467583 46:0.083743535 47:0.064546421 48:0.2657944 49:0.39458755 50:-0.29184148 51:0.27828526 52:0.25092486 53:-0.17137824 54:-0.45506486 55:-0.29799494 56:-0.15282583 57:-0.38698164 58:0.10008705 59:0.053945638 60:0.015954182 61:-0.12644866 62:0.14939687 63:0.2910763 64:-0.0075666225 65:0.36818364 66:-0.28596008 67:-0.66072619 68:0.059477657 69:-0.064240962 70:-0.10025104 71:-0.12417951 72:-0.783943 73:0.33103755 74:-0.090161309 75:-0.14927663 76:0.078595236 77:0.13203213 78:-0.24101247 79:-0.14783292 80:-0.030760961 81:0.080966614 82:-0.075324453 83:-0.63734323 84:0.33175051 85:-0.021034505 86:0.36540595 87:-0.0055183158 88:0.39535874 89:-0.16725987 90:-0.15792404 91:0.41262385 92:0.26179281 93:-0.55220354 94:-0.02504801 95:0.27135405 96:-0.23387347 97:-0.52585489 98:-0.67389441 99:0.2500326 100:-0.090949558 #
0.12821235964773184 1:0.061049979 2:-0.20062934 3:-0.16707526 4:0.41659468 5:-0.18673946 6:-0.13228279 7:-0.22011366 8:0.34474173 9:-0.29117954 10:0.21106401 11:-0.1830219 12:-0.088176921 13:-0.022368222 14:-0.063015118 15:-0.12485734 16:-0.22278726 17:-0.029524641 18:-0.031629767 19:0.48505437 20:-0.11485749 21:-0.15985355 22:0.16849205 23:-0.12989038 24:0.038019698 25:0.24711062 26:0.53264105 27:0.074423082 28:0.50182915 29:0.061758596 30:-0.0070808469 31:-0.19601759 32:-0.10862961 33:0.11867125 34:0.0073833661 35:-0.055307359 36:-0.043644976 37:0.15663353 38:-0.05980476 39:-0.15903203 40:0.38817948 41:-0.12707707 42:-0.012682687 43:-0.0087549463 44:-0.14301071 45:-0.21813944 46:-0.22498138 47:0.19332288 48:0.24201599 49:0.58060944 50:0.3151601 51:-0.12109223 52:0.18569414 53:0.29736051 54:-0.17828242 55:0.36029884 56:0.16440827 57:-0.31486452 58:-0.18236394 59:-0.076333418 60:-0.023143828 61:-0.34693578 62:-0.017970525 63:-0.076394476 64:0.011837411 65:0.21677849 66:-0.077471018 67:0.35676816 68:-0.31102917 69:0.17334451 70:-0.052529085 71:0.18538497 72:-0.055710036 73:0.16315615 74:-0.17910551 75:-0.0052058478 76:0.36610582 77:0.29007745 78:-0.093695879 79:0.067518771 80:-0.056116514 81:-0.24516918 82:0.045569986 83:-0.28891966 84:0.011381789 85:-0.17458877 86:-0.329835 87:-0.12394806 88:-0.044450644 89:0.071228236 90:0.24001326 91:0.087765887 92:0.43183571 93:0.029128749 94:-0.20913811 95:0.38199794 96:0.010111603 97:-0.43190426 98:-0.19825648 99:0.36134318 100:-0.094330102 #
-0.12821235964773184 1:0.25406796 2:0.40759611 3:0.031884916 4:0.38303608 5:0.20347746 6:-0.6170609 7:-0.30140525 8:0.097996779 9:0.21126497 10:-0.42467955 11:0.04415432 12:0.71386474 13:-0.30958197 14:0.11465075 15:0.24395268 16:-0.097296298 17:0.30476445 18:0.037782956 19:0.25383779 20:-0.42519376 21:-0.51332605 22:0.25507593 23:-0.2445242 24:-0.10195144 25:-0.62096334 26:0.56319249 27:-0.22983682 28:-0.043284986 29:0.1749236 30:-0.066547394 31:0.25948802 32:0.044076093 33:0.15553187 34:-0.16366105 35:0.29573402 36:0.20800813 37:-0.46091062 38:0.022000562 39:0.19537523 40:0.88860047 41:-0.28483868 42:-0.4019798 43:0.24376525 44:-0.05211959 45:-0.31835124 46:-0.19755022 47:0.014769413 48:-0.32769358 49:0.45164028 50:-0.23345241 51:0.30445918 52:0.28440946 53:0.33699921 54:-0.12771857 55:-0.62772918 56:-0.21879297 57:-0.26078245 58:-0.28503373 59:0.05872928 60:-0.044592705 61:-0.43362927 62:-0.51029432 63:0.0032937578 64:-0.24565999 65:-0.096239895 66:-0.097127497 67:0.086943671 68:-0.29991123 69:-0.28835842 70:0.32034138 71:-0.17589837 72:0.32794431 73:0.69592059 74:0.19137597 75:0.14314598 76:-0.15735495 77:0.22697221 78:-0.18951043 79:-0.043502901 80:0.21069393 81:0.10373927 82:-0.13898326 83:-0.8391217 84:-0.10199103 85:-0.11531724 86:-0.043253206 87:-0.041018669 88:0.082274459 89:0.13929787 90:0.41392571 91:-0.049918439 92:0.11174916 93:0.40798035 94:0.069427945 95:0.29592243 96:0.37689912 97:-0.2688475 98:-0.18378927 99:-0.20532495 100:0.010740623 #
-0.12821235964773184 1:-0.0060793203 2:-0.028471006 3:-0.4029139 4:0.24100585 5:-0.081342407 6:-0.16261864 7:-0.22154528 8:0.090634845 9:0.42973444 10:-0.14461887 11:-0.25723389 12:0.11822553 13:0.34619549 14:0.19793202 15:-0.21491461 16:-0.44823089 17:0.57949948 18:-0.060525846 19:0.34670419 20:-0.41468924 21:-0.5474562 22:0.64759564 23:-0.14160132 24:-0.29326078 25:-0.32852453 26:-0.10968455 27:0.35556459 28:-0.08273676 29:0.066417977 30:-0.23088107 31:0.036058243 32:0.018548211 33:-0.42354459 34:-0.14164846 35:0.14197433 36:-0.011354392 37:-0.49838948 38:0.32940724 39:0.54574943 40:0.58275908 41:-0.32992342 42:-0.15972161 43:0.052978698 44:0.048806272 45:-0.76674706 46:-0.38254592 47:-0.16039783 48:-0.052648135 49:0.39612859 50:0.022086343 51:-0.047425792 52:-0.09539184 53:0.09013126 54:0.022602808 55:0.19796476 56:0.13043717 57:-0.53036147 58:-0.81385958 59:-0.048523545 60:-0.287981 61:-0.065766476 62:0.57357091 63:0.22176504 64:0.500835 65:-0.25143063 66:-0.13615216 67:-0.060963638 68:-0.4877702 69:0.20601316 70:-0.064156845 71:-0.14960063 72:-0.033983592 73:0.20916305 74:0.37295726 75:-0.095251761 76:0.27134049 77:-0.021847272 78:-0.40651014 79:0.13712588 80:0.28218272 81:-0.56895101 82:-0.038364626 83:-0.020294987 84:0.087066203 85:-0.49068373 86:-0.35988808 87:-0.044771552 88:0.10441242 89:-0.28716791 90:-0.3207261 91:-0.28871265 92:0.64071345 93:0.23770325 94:-0.20484401 95:0.43084183 96:-0.017913653 97:-0.023136612 98:0.17532551 99:0.39119336 100:-0.044952389 #
-0.12821235964773184 1:-0.20203531 2:-0.058626875 3:-0.53927374 4:-0.17186654 5:-0.2100867 6:-0.1855101 7:0.16849951 8:0.429243 9:0.37494481 10:-0.15485616 11:0.45751089 12:0.32765061 13:-0.096785486 14:0.14078179 15:-0.2330486 16:0.12995304 17:-0.14822371 18:-0.018237513 19:0.36395252 20:0.021568865 21:-0.37566808 22:0.28870067 23:-0.46252653 24:0.13992113 25:0.13968898 26:0.64192158 27:0.27213708 28:0.078542456 29:0.058644004 30:-0.4642868 31:-0.4883559 32:0.037031576 33:0.023106193 34:0.15546918 35:-0.021164495 36:-0.0034650848 37:-0.22584949 38:0.054353718 39:0.20749836 40:-0.017388815 41:0.31171846 42:0.019239523 43:-0.10932585 44:0.10898365 45:-0.17238332 46:0.017813688 47:0.22996581 48:0.16574422 49:0.66085064 50:-0.10259962 51:0.13965729 52:-0.039956618 53:0.12655553 54:-0.0043660584 55:0.030857084 56:-0.3955912 57:-0.3451831 58:-0.38371751 59:0.083801799 60:0.244863 61:-0.040288933 62:0.20781367 63:0.082027502 64:0.27881104 65:-0.23647948 66:0.054187585 67:0.13556157 68:-0.36202511 69:-0.3152492 70:-0.027958374 71:0.15848537 72:-0.051587474 73:0.69663578 74:0.12746353 75:-0.57643247 76:0.096904829 77:-0.094544478 78:-0.2463869 79:0.10278613 80:0.32060444 81:-0.027290653 82:0.49242797 83:-0.14722881 84:0.20929714 85:-0.66836286 86:0.093415566 87:-0.058372296 88:-0.26988286 89:0.0091885086 90:0.21853498 91:0.30355927 92:0.67476463 93:0.5405578 94:0.094416976 95:0.16392171 96:0.021929223 97:-0.32157534 98:0.15767275 99:-0.10338396 100:0.01797552 #
-0.12821235964773184 1:-0.10446746 2:0.50175267 3:0.034082413 4:-0.26589775 5:0.017145699 6:-0.21289289 7:0.1000215 8:-0.040554442 9:0.23995908 10:-0.43678522 11:-0.61065769 12:0.68088549 13:-0.12677018 14:-0.63906193 15:-0.10993133 16:-0.082769088 17:0.50470394 18:-0.080440372 19:0.1605671 20:-0.45882928 21:-0.57858104 22:0.14803268 23:-0.24594077 24:0.61080706 25:-0.40923887 26:0.32084 27:0.57797033 28:0.092715159 29:0.16170505 30:-0.38030928 31:-0.51759988 32:-0.3490499 33:-0.27004576 34:0.19119619 35:0.15517274 36:0.29290551 37:-0.3606669 38:0.60211188 39:-0.090894543 40:-0.013321682 41:-0.34051359 42:-0.39136228 43:-0.24938409 44:-0.31297949 45:-0.29106671 46:0.3145563 47:-0.084647499 48:0.044704933 49:0.17079577 50:0.29762402 51:0.013551334 52:0.51662672 53:0.045862444 54:-0.34414142 55:0.55818051 56:0.20759974 57:0.24833271 58:-0.10412643 59:-0.44369897 60:0.43572396 61:-0.68808883 62:0.23269336 63:0.2979677 64:0.47035846 65:-0.034467056 66:0.30720299 67:-0.10094396 68:-0.11021718 69:0.28278667 70:0.34592918 71:0.82544327 72:-0.29896966 73:0.050785307 74:0.041121289 75:-0.34784809 76:0.3689332 77:0.50677264 78:-0.22385235 79:0.24354765 80:-0.19900592 81:0.046747062 82:0.14155212 83:0.060656983 84:0.27775827 85:-0.31660679 86:-0.45264238 87:-0.044595275 88:0.065829128 89:-0.13466275 90:0.072916098 91:0.44806865 92:1.2518398 93:0.23020416 94:0.74763477 95:-0.053395133 96:-0.40038544 97:-0.31415051 98:-0.67856598 99:-0.092985876 100:-0.63186818 #
-0.12821235964773184 1:0.24945739 2:0.30452284 3:-0.25880563 4:-0.047063712 5:-0.085754424 6:-0.24495712 7:-0.070000462 8:-0.093423456 9:0.20568198 10:0.06966462 11:-0.091733895 12:0.36423555 13:-0.22385126 14:0.13572191 15:0.2457075 16:-0.048764922 17:0.18221046 18:-0.58042663 19:0.23384969 20:-0.14456959 21:0.18516684 22:0.25959036 23:-0.16164906 24:-0.074580282 25:0.27418062 26:-0.0022485587 27:0.24006583 28:0.2482181 29:0.039197791 30:-0.33492842 31:-0.22668979 32:0.00025684814 33:-0.098341696 34:0.33171636 35:-0.074242935 36:0.080807738 37:0.0069244918 38:0.21224549 39:0.017272828 40:0.39833602 41:0.0010236594 42:0.066439509 43:-0.43604767 44:-0.05624301 45:-0.42351693 46:0.096539117 47:0.066149808 48:0.071689844 49:0.43731442 50:-0.063807487 51:-0.10657239 52:0.15440518 53:-0.023783883 54:-0.28187442 55:-0.37129632 56:0.27538878 57:-0.26479346 58:-0.40305603 59:0.24340998 60:0.30523953 61:-0.21737061 62:-0.1254223 63:0.10065442 64:0.011558818 65:0.15641388 66:-0.26200435 67:0.15003213 68:-0.12235351 69:-0.12715755 70:0.13704123 71:-0.027755581 72:0.09647619 73:0.049149394 74:0.07298892 75:0.24606733 76:-0.23881848 77:0.36338401 78:-0.33056429 79:0.10085808 80:0.18307906 81:0.18088798 82:0.0021625564 83:-0.026943486 84:0.088390492 85:-0.18605816 86:-0.11434302 87:-0.17250134 88:-0.25068128 89:-0.093777888 90:-0.20244443 91:0.12439618 92:0.39583212 93:0.080513664 94:0.022902494 95:0.092464373 96:-0.47845247 97:-0.14857909 98:-0.18817817 99:-0.051869933 100:-0.132691 #
0.12821235964773184 1:-0.026287172 2:-0.86003363 3:0.17927045 4:-0.24790001 5:0.0079401145 6:-0.70149434 7:0.12525184 8:0.11116715 9:-0.25123215 10:0.7236973 11:-0.044456478 12:-0.08614561 13:-0.22440103 14:-0.046301801 15:0.3475644 16:-0.36491051 17:-0.044317588 18:0.047483645 19:-0.28319293 20:-0.14192742 21:-0.54063267 22:0.58287197 23:-0.28048128 24:-0.088531055 25:0.13612406 26:0.31245402 27:0.17843291 28:0.0097244373 29:-0.42731339 30:0.10518568 31:0.10307539 32:0.12785436 33:-0.041675907 34:-0.11480195 35:0.22897865 36:-0.19116154 37:-0.0027002974 38:0.25146234 39:-0.67059666 40:0.34123647 41:-0.052224733 42:-0.42528903 43:0.0020437327 44:-0.13052399 45:0.0044793603 46:-0.41949472 47:-0.060626749 48:0.32150796 49:0.18633343 50:0.068977013 51:-0.015709229 52:0.50772554 53:0.05685303 54:0.23352705 55:-0.10493407 56:-0.072498202 57:-0.20692749 58:0.69539762 59:0.37103966 60:0.20257762 61:-0.34174651 62:0.35554239 63:-0.12442582 64:0.38125464 65:0.0043592229 66:-0.32888281 67:0.11200334 68:-0.20356359 69:-0.15692146 70:0.010421535 71:-0.2479592 72:-0.56093752 73:0.55637628 74:-0.18766579 75:-0.24805516 76:0.42805132 77:0.46390158 78:0.37330016 79:-0.59297895 80:-0.040902406 81:0.31081304 82:0.25604388 83:-0.6904999 84:0.33350343 85:-0.2225199 86:0.30625227 87:0.20933169 88:-0.32072443 89:0.41145903 90:-0.042807877 91:-0.033708021 92:0.28463688 93:0.12319778 94:0.17439957 95:0.53910148 96:-0.25329864 97:-0.42886195 98:0.033693701 99:0.25062287 100:-0.015939156 #
0.12821235964773184 1:-0.27518278 2:-0.53601706 3:0.089318678 4:-0.15861896 5:-0.16059256 6:-0.33513832 7:-0.45411998 8:-0.063423067 9:-0.5982694 10:0.18641055 11:-0.30603731 12:-0.19314104 13:-0.24853475 14:-0.22795725 15:-0.31489038 16:-0.029851943 17:-0.059435021 18:-0.085687086 19:0.22347799 20:-0.14255042 21:-0.1363046 22:0.36277574 23:-0.67616683 24:-0.0053187381 25:0.21663946 26:0.47081235 27:0.12585224 28:0.27041531 29:0.14266124 30:-0.11116616 31:-0.16411018 32:0.23346254 33:0.12321594 34:-0.45188832 35:0.26164919 36:0.27873275 37:0.01439802 38:0.42313218 39:-0.0032332817 40:0.32757369 41:-0.1680757 42:-0.05621504 43:-0.11926549 44:-0.18820144 45:-0.26850316 46:-0.12348728 47:-0.28188816 48:-0.090311371 49:0.44942468 50:0.075462401 51:-0.39339468 52:0.22399305 53:-0.1907905 54:-0.43165237 55:0.23914492 56:-0.056364812 57:-0.032363102 58:-0.0018945656 59:0.31612921 60:-0.026813712 61:-0.23603231 62:-0.0529439 63:-0.16142032 64:-0.014224352 65:-0.045887265 66:0.49549937 67:-0.28443709 68:-0.40627235 69:-0.17159083 70:0.26938513 71:0.14561254 72:-0.46821561 73:0.49469236 74:0.065478057 75:0.13898374 76:0.49308965 77:0.27861625 78:0.36684874 79:0.30711898 80:-0.36981925 81:0.052270915 82:-0.41366771 83:-0.62448192 84:0.375714 85:-0.01840793 86:0.035842005 87:-0.14457141 88:0.17414896 89:0.15291154 90:0.13162953 91:0.037858386 92:0.60842049 93:0.20171189 94:0.023872066 95:0.51113647 96:-0.25298822 97:-0.37667158 98:-0.34652495 99:0.24776387 100:-0.30467907 #
0.12821235964773184 1:-0.38332629 2:-0.67044634 3:0.028434072 4:0.13355064 5:0.046379473 6:-0.0050732964 7:-0.12108438 8:-0.072652578 9:-0.37335849 10:0.15066808 11:0.061396979 12:-0.38914815 13:-0.27321026 14:0.017304491 15:0.2940523 16:0.17988607 17:-0.087142296 18:-0.13758235 19:0.37226701 20:-0.47359431 21:0.064752646 22:0.24181539 23:-0.27252465 24:0.15915892 25:0.23271446 26:0.90437967 27:0.058219474 28:0.069148265 29:-0.1991097 30:0.38276505 31:0.15059754 32:0.30954239 33:0.23396292 34:-0.070736744 35:0.007263294 36:0.017652525 37:-0.33819878 38:-0.04372938 39:-0.33660719 40:0.61109388 41:-0.052178089 42:-0.69512123 43:-0.24815619 44:-0.19972551 45:-0.043408465 46:-0.48576835 47:-0.60827142 48:-0.091067076 49:0.68107301 50:0.29731217 51:-0.6321094 52:0.20098636 53:-0.031945996 54:0.022310954 55:0.028044928 56:-0.14906487 57:-0.26884753 58:0.01915936 59:-0.17059347 60:-0.16887523 61:-0.19203794 62:-0.37368 63:0.14441833 64:-0.34362492 65:0.033827741 66:-0.004413506 67:0.10786486 68:-0.69561511 69:-0.33157483 70:0.30792254 71:-0.21829942 72:-0.21840377 73:0.88722771 74:-0.090454593 75:0.22014429 76:0.77372539 77:0.38313308 78:-0.0004597535 79:0.68477029 80:-0.11439027 81:0.033791859 82:-0.3109042 83:-0.37210557 84:0.29740271 85:-0.37826875 86:0.46270218 87:-0.18163635 88:-0.16364995 89:-0.27372682 90:-0.24290915 91:-0.11737879 92:0.026526267 93:0.16487645 94:-0.54167706 95:0.61181843 96:-0.020811342 97:-0.77345496 98:-0.49391451 99:-0.093524627 100:-0.15660658 #
0.12821235964773184 1:-0.56056046 2:-0.037566252 3:-0.083259381 4:-0.23591046 5:-0.0470617 6:-0.29686987 7:-0.49218515 8:-0.057783663 9:-0.35170433 10:0.15801096 11:-0.32655323 12:0.084120363 13:-0.18805011 14:0.30141228 15:0.31206405 16:-0.11462907 17:-0.21473929 18:-0.25764614 19:0.19587681 20:-0.071135022 21:-0.37170562 22:0.33616644 23:-0.27595678 24:-0.057812881 25:-0.045929484 26:0.29084274 27:0.11776151 28:0.092987977 29:-0.59259528 30:-0.36897373 31:0.036602069 32:0.15781513 33:-0.38599113 34:0.15758277 35:0.22942543 36:-0.022958033 37:0.19424841 38:-0.24304901 39:-0.14869836 40:-0.0014033618 41:-0.066698857 42:0.11945493 43:-0.40270248 44:-0.34031141 45:-0.81253797 46:0.050453976 47:0.57595611 48:-0.3839075 49:0.68757325 50:0.056838509 51:-0.47631794 52:0.23678218 53:-0.24611467 54:0.1623423 55:0.0070821252 56:0.23460464 57:-0.27413854 58:0.081589535 59:0.064459309 60:0.022034692 61:-0.4932079 62:0.16657881 63:0.21438006 64:-0.016073434 65:0.28526121 66:0.37326595 67:-0.1122117 68:-0.39405093 69:-0.18178478 70:-0.0082345372 71:0.047538571 72:-0.26270062 73:0.62534255 74:0.022209195 75:0.35254461 76:0.19895305 77:0.090325117 78:0.20677385 79:-0.2532208 80:0.47347954 81:0.19459394 82:-0.32522652 83:0.20748888 84:0.038144574 85:-0.027453555 86:-0.22112121 87:-0.1739832 88:-0.12796576 89:0.20095907 90:0.17739621 91:0.18953308 92:0.37148827 93:0.86122239 94:-0.080221511 95:-0.020266484 96:0.040961184 97:0.21114862 98:-0.4118686 99:0.3465386 100:-0.64136535 #
0.12821235964773184 1:-0.15445648 2:-0.32758653 3:-0.056418791 4:0.094099179 5:-0.067265324 6:-0.26385307 7:-0.11551416 8:0.049699947 9:-0.50193429 10:0.45284498 11:-0.24350545 12:-0.19685218 13:0.12185738 14:-0.13052863 15:0.076831631 16:0.020539364 17:0.18813658 18:-0.20424844 19:0.1697237 20:-0.24029668 21:-0.17530145 22:-0.048641771 23:-0.61168379 24:-0.12745447 25:-0.13088651 26:0.69402033 27:0.29857236 28:-0.02583847 29:-0.72609621 30:-0.20978101 31:-0.39105231 32:-0.18587379 33:-0.013250661 34:0.18085146 35:0.15809745 36:-0.1429677 37:0.14205045 38:0.22176009 39:-0.75693285 40:0.33847308 41:0.033802804 42:0.34429449 43:0.055735078 44:-0.056011409 45:-0.40247497 46:-0.14931394 47:-0.019333173 48:0.152565 49:0.5966022 50:0.32455903 51:-0.1510146 52:0.22706401 53:0.02124322 54:-0.27836794 55:0.076379679 56:0.049644973 57:0.0029676433 58:0.22814108 59:-0.24403371 60:0.37871435 61:-0.36186579 62:-0.0078134537 63:0.031099094 64:-0.69914204 65:0.13887614 66:0.11965169 67:0.046109419 68:-0.55498004 69:-0.20811573 70:0.31166601 71:-0.13226566 72:-0.48299897 73:0.41326085 74:-0.41001722 75:0.10547422 76:0.47836915 77:-0.097867601 78:0.16409299 79:0.23201936 80:-0.13891587 81:0.017176323 82:-0.059882384 83:-0.1337809 84:0.030067906 85:-0.14080884 86:-0.31219316 87:0.040934179 88:-0.18308476 89:0.42790437 90:-0.059724234 91:0.054486502 92:0.49882007 93:0.30484152 94:-0.18421614 95:0.34668645 96:-0.050765585 97:-0.57619327 98:-0.067895226 99:0.29022145 100:-0.0379549 #
-0.12821235964773184 1:-0.3306213 2:-0.33507237 3:-0.20310789 4:-0.20405257 5:-0.91911709 6:-0.2553122 7:-0.19331731 8:0.73176056 9:-0.64739662 10:1.0771908 11:-0.5224424 12:-0.27741626 13:-0.34500551 14:-0.0022864921 15:0.26394153 16:-0.10768981 17:0.031007271 18:-0.096004136 19:0.181394 20:0.083854876 21:0.49243689 22:0.44401971 23:-0.31546122 24:0.10720041 25:0.57847303 26:0.49120024 27:-0.24824634 28:-0.12074047 29:-0.159208 30:0.12125404 31:0.51630956 32:-0.081628457 33:0.31751588 34:-0.74443299 35:0.45763695 36:0.16731897 37:-0.15840782 38:-0.1953775 39:-0.055774651 40:-0.17109731 41:-0.27478057 42:-0.61223692 43:0.04384033 44:-0.25325546 45:-0.25362325 46:-0.3825452 47:0.023178281 48:-0.41641685 49:0.8263039 50:0.10556323 51:0.51749825 52:0.62339336 53:0.3171837 54:-0.32682881 55:-0.043061689 56:0.091717623 57:-0.66109031 58:0.03787116 59:0.23073378 60:0.26247481 61:0.32135388 62:0.14383638 63:-0.41329277 64:-0.0061474368 65:0.08740332 66:-0.36573774 67:0.053201929 68:-0.24557555 69:0.057538528 70:0.16436909 71:-0.30924189 72:-0.18325569 73:0.64126062 74:0.043856651 75:0.023491956 76:0.19305153 77:0.42425424 78:-0.19608372 79:-0.16010389 80:-0.049946439 81:0.47057933 82:0.18789023 83:-0.47077072 84:-0.030459534 85:-0.62393123 86:0.70358813 87:-0.072058171 88:0.38557428 89:0.20659529 90:0.19299889 91:-0.38172531 92:0.34721237 93:0.075254612 94:-0.19098137 95:0.613877 96:-0.085633494 97:-0.31993559 98:-0.40524924 99:0.16275695 100:-0.12085742 #
-0.12821235964773184 1:-0.073253855 2:-0.02654805 3:0.075867869 4:-0.55994099 5:-0.43294948 6:-0.56982183 7:-0.22927375 8:0.0071715456 9:0.31843069 10:0.5374555 11:-0.44947633 12:0.040391948 13:-0.21544509 14:-0.12433735 15:0.33989322 16:-0.25587708 17:0.0046389 18:-0.25487205 19:0.03045346 20:-0.11738837 21:-0.13915807 22:0.37682194 23:-0.026212942 24:0.23069473 25:0.10695595 26:-0.094720893 27:0.13453667 28:0.075019345 29:-0.18864846 30:-0.15092322 31:-0.16349575 32:0.036730412 33:-0.12846404 34:0.12067875 35:0.21193108 36:0.11386523 37:0.06525068 38:0.18170026 39:0.10342829 40:0.19184531 41:-0.12985769 42:-0.074732803 43:-0.0061199269 44:-0.17175642 45:-0.2509619 46:-0.24666411 47:-0.093485847 48:-0.27296159 49:0.5124262 50:-0.31059214 51:-0.066750735 52:0.36933056 53:0.13742432 54:-0.11292439 55:0.2188706 56:0.20845339 57:-0.003981797 58:0.05907806 59:-0.11641298 60:-0.061714306 61:-0.14777856 62:0.17682476 63:-0.14156042 64:0.21237357 65:-0.18743865 66:-0.094127633 67:0.088264719 68:0.12893476 69:-0.32995394 70:-0.48651189 71:0.052046634 72:-0.19362092 73:0.50314498 74:-0.012159944 75:-0.11288075 76:0.042807724 77:0.18773974 78:-0.37353525 79:0.24317957 80:-0.20291482 81:0.057126451 82:-0.296895 83:-0.45020282 84:-0.087308839 85:-0.40944028 86:-0.34534368 87:0.006376348 88:0.49903896 89:0.08790911 90:-0.047647234 91:-0.37037158 92:0.15713218 93:-0.35547999 94:-0.10596941 95:0.3753736 96:-0.24005222 97:0.035397694 98:-0.14387782 99:0.02405725 100:0.053898495 #
-0.12821235964773184 1:-0.24287653 2:-0.34660918 3:-0.041083522 4:0.13419521 5:-0.55547112 6:0.31224397 7:-0.2903302 8:0.14239879 9:-0.56477994 10:0.36476997 11:-0.33533004 12:-0.42061478 13:-0.28974658 14:-0.17323464 15:-0.0078382846 16:-0.25783503 17:-0.064364843 18:0.071839921 19:0.0011474529 20:-0.33340338 21:-0.070782565 22:0.35008442 23:0.10426824 24:0.067113444 25:-0.14869484 26:0.65316385 27:0.050424542 28:0.21288118 29:-0.051623546 30:-0.0092538819 31:-0.011881366 32:-0.098786227 33:-0.025890606 34:-0.073475689 35:0.18406838 36:-0.0025782345 37:-0.056893758 38:-0.090112932 39:-0.19863012 40:0.53190613 41:-0.15295294 42:-0.085142165 43:0.08480151 44:-0.44017872 45:-0.28890923 46:0.02097578 47:-0.39413139 48:0.32692647 49:0.51654059 50:0.33491528 51:-0.092490979 52:0.65123206 53:-0.095182255 54:-0.21192087 55:0.25119793 56:0.37189752 57:-0.53860337 58:0.38106948 59:-0.077446729 60:0.026813943 61:-0.018544372 62:-0.24132229 63:-0.37024844 64:0.16632339 65:-0.066683702 66:-0.14114194 67:0.05812886 68:-0.031156976 69:-0.13525616 70:-0.14748739 71:-0.11967182 72:-0.20573135 73:0.54775673 74:0.11510766 75:0.20444299 76:-0.1191471 77:0.32183549 78:-0.19464391 79:-0.12034264 80:0.083454095 81:-0.0051680254 82:0.33865684 83:-0.47078866 84:0.13743716 85:-0.39731678 86:0.33789968 87:0.13316613 88:0.045769513 89:0.30434966 90:0.18695396 91:-0.35672069 92:0.62435657 93:-0.17893557 94:0.048555121 95:0.62438881 96:-0.15763614 97:-0.2880275 98:-0.2131708 99:0.0125662 100:-0.22649716 #
-0.12821235964773184 1:-0.35757872 2:-0.076280281 3:0.21414682 4:-0.16310208 5:-0.98924816 6:-0.39061353 7:-0.35146338 8:0.48394546 9:-0.40847921 10:-0.060547266 11:-0.26045951 12:-0.81858146 13:0.27299926 14:0.20915107 15:0.29153109 16:-0.30968279 17:0.1593533 18:-0.45211238 19:-0.58811897 20:0.47741163 21:-0.60934275 22:0.13837044 23:-0.043102995 24:0.15578742 25:-0.40685654 26:0.53268343 27:0.49727687 28:0.23061338 29:-0.68018919 30:-0.12934019 31:-0.16773473 32:0.29586515 33:-0.41323093 34:-0.10777916 35:0.18874663 36:-0.23224989 37:-0.16824418 38:-0.10160732 39:-0.2499892 40:0.026137011 41:-0.27631658 42:0.033908065 43:-0.0070234276 44:-0.40879288 45:-0.01985172 46:-0.33314672 47:0.24021152 48:-0.19487776 49:0.53331846 50:-0.3129122 51:-0.39200547 52:0.76144809 53:-0.19943431 54:-0.51314521 55:-0.29389906 56:0.02586899 57:0.074468933 58:0.39453423 59:0.16997448 60:-0.076818138 61:-0.017351817 62:0.26151261 63:0.36233854 64:0.062960573 65:-0.12544426 66:-0.46761709 67:-0.079023391 68:-0.10506178 69:-0.76605397 70:-0.13946475 71:0.48493451 72:-0.35107797 73:0.53821421 74:-0.17844346 75:0.14671661 76:-0.26560387 77:0.37048909 78:0.14074457 79:0.038973294 80:0.67895085 81:0.47009465 82:0.026702745 83:-0.29729834 84:0.015027271 85:-0.7901035 86:0.12296101 87:-0.39860776 88:-0.099836826 89:0.18848364 90:0.011704282 91:0.27217799 92:0.58104777 93:-0.065584987 94:-0.41535145 95:0.03407649 96:-0.16245946 97:-0.61879206 98:0.16994914 99:0.083416618 100:-0.50440025 #
-0.12821235964773184 1:-0.36184302 2:-0.40665638 3:-0.056053929 4:-0.25438157 5:0.048694625 6:0.15613705 7:-0.42022023 8:0.34464401 9:-0.36081287 10:0.42646718 11:-0.066629328 12:-0.1813281 13:-0.41720057 14:-0.19858241 15:0.2695162 16:-0.089009814 17:-0.11494891 18:-0.20668826 19:-0.21555625 20:-0.37888166 21:-0.50014138 22:0.20785619 23:-0.076618709 24:-0.49628761 25:0.21399462 26:0.74136925 27:0.10071881 28:-0.091752812 29:-0.34575379 30:0.021335859 31:-0.18665379 32:0.47333166 33:-0.067118697 34:-0.21533526 35:-0.050346639 36:-0.15154466 37:0.079042688 38:-0.15190224 39:-0.35142908 40:0.22508021 41:-0.097054139 42:-0.043552924 43:-0.013216455 44:-0.12483269 45:-0.45224792 46:-0.11254242 47:-0.17783402 48:0.05024574 49:0.82005322 50:0.1001964 51:-0.25674343 52:0.21553281 53:0.22232373 54:-0.2304918 55:0.12351487 56:-0.29264987 57:-0.34926787 58:0.16710655 59:0.59085846 60:-0.044811964 61:-0.43822929 62:0.061644439 63:0.66529375 64:0.0044349292 65:0.24653926 66:0.15238483 67:0.45136711 68:-0.5051356 69:-0.34962106 70:0.25967783 71:-0.38770083 72:-0.68737894 73:0.39863881 74:0.068120964 75:0.073369399 76:0.51940286 77:-0.11653129 78:-0.32653844 79:0.30753979 80:-0.13721208 81:0.58220708 82:0.072574504 83:-0.27019128 84:-0.046004668 85:-0.26782426 86:0.64742535 87:-0.26855251 88:-0.0033431253 89:-0.050825346 90:0.088590324 91:-0.2690219 92:0.99573618 93:-0.15106894 94:-0.30825189 95:0.15929972 96:-0.080990396 97:-0.28706557 98:-0.45497838 99:0.25654569 100:0.13127765 #
0.12821235964773184 1:-0.072213486 2:-0.081251785 3:-0.30780578 4:0.065225072 5:-0.17075488 6:-0.32970691 7:0.0038506777 8:0.26187477 9:-0.03922167 10:0.36431256 11:-0.15553837 12:-0.044174898 13:0.44730291 14:-0.081935145 15:-0.24329174 16:-0.024468835 17:-0.1918318 18:-0.69348437 19:0.11258504 20:-0.10434978 21:-0.26501161 22:0.42270401 23:-0.17539555 24:0.28870943 25:0.25471461 26:-0.081674762 27:0.29938665 28:0.12957749 29:0.054266281 30:-0.16667737 31:-0.33524787 32:-0.037074611 33:0.21415998 34:0.23991849 35:0.19248837 36:0.012306808 37:0.13679744 38:-0.09012083 39:0.17738126 40:-0.020449985 41:-0.21661499 42:-0.27401128 43:0.28512615 44:0.43719241 45:-0.40048799 46:-0.18844742 47:0.55356967 48:-0.082528614 49:0.64737737 50:-0.14634222 51:0.039332218 52:0.53446168 53:0.1330983 54:-0.31039131 55:0.0065493393 56:-0.0043209409 57:-0.20311619 58:-0.31593516 59:0.27282059 60:-0.21333319 61:-0.26358598 62:0.25021264 63:4.1449999e-005 64:-0.039481621 65:0.067949548 66:0.029763056 67:0.36634299 68:-0.48648262 69:-0.063535571 70:-0.43491852 71:0.283434 72:-0.0079628797 73:0.17853801 74:-0.22433542 75:0.33786759 76:-0.22046156 77:0.62513572 78:-0.40158692 79:-0.0346453 80:0.034273453 81:0.164546 82:0.13941833 83:-0.17247541 84:0.39543951 85:-0.069899216 86:-0.24646156 87:-0.074724764 88:-0.53426039 89:0.16804218 90:0.043283504 91:0.034359217 92:0.0014124975 93:0.4258779 94:-0.32990345 95:0.06683059 96:0.077884473 97:-0.13905618 98:-0.33460689 99:0.12945803 100:-0.16029102 #
0.12821235964773184 1:0.034654606 2:0.29385018 3:-0.41588253 4:0.16036682 5:-0.014259432 6:-0.20711404 7:0.047177341 8:0.33145559 9:0.50185853 10:0.15859671 11:-0.27963167 12:0.55202335 13:0.088695973 14:-0.20031375 15:0.18657205 16:-0.55127937 17:0.35696641 18:-0.39001042 19:0.45126644 20:-0.45382735 21:-0.28308517 22:0.29325563 23:-0.15050919 24:-0.33881274 25:-0.0079359747 26:0.13808143 27:0.62638116 28:0.16383082 29:0.11965427 30:-0.38586083 31:0.12310885 32:0.053488571 33:-0.75358766 34:0.18558705 35:0.37123182 36:0.27247521 37:-0.44536901 38:0.14160852 39:0.24803273 40:0.38077375 41:-0.10506646 42:-0.1116543 43:-0.14248811 44:0.24282418 45:-0.65494889 46:0.033613488 47:-0.20582211 48:-0.33637875 49:-0.18139915 50:-0.39503953 51:-0.70920938 52:0.013181646 53:0.35217625 54:-0.60635543 55:0.1749939 56:0.18327625 57:-0.33560535 58:-0.37868252 59:-0.084547356 60:0.039792385 61:-0.15812859 62:0.15985751 63:0.090269238 64:0.025920382 65:0.12993863 66:-0.18272617 67:-0.22399314 68:0.0055641704 69:-0.18980311 70:0.081561953 71:0.0090581011 72:-0.12980552 73:0.09801098 74:0.36414406 75:-0.23614022 76:-0.31232661 77:-0.077458918 78:-0.25368175 79:0.2494999 80:0.62416458 81:0.094039723 82:-0.70449597 83:-0.039478965 84:0.1954613 85:-0.30096415 86:-0.31961292 87:0.065228924 88:-0.25263622 89:0.15106842 90:-0.019626169 91:0.62037796 92:0.71499318 93:0.26723415 94:-0.0042239982 95:0.18418212 96:-0.10183644 97:0.64345092 98:0.29732898 99:0.26802307 100:-0.16150297 #
-0.12821235964773184 1:0.0011779333 2:-0.23086663 3:-0.040427275 4:-0.0093313949 5:-0.46711507 6:0.0052178656 7:0.00087228738 8:0.39171067 9:-0.63543063 10:0.13436508 11:-0.26935717 12:0.21645628 13:0.0028571333 14:0.11229584 15:0.012653809 16:-0.37039 17:0.16470279 18:-0.12990266 19:-0.12446899 20:0.2274929 21:-0.13194685 22:0.22634897 23:-0.14057371 24:0.21855301 25:0.41947562 26:0.47779134 27:0.18930782 28:-0.20478721 29:-0.4416897 30:0.12326677 31:0.22080453 32:-0.21440224 33:0.14675675 34:-0.0024138209 35:0.34213823 36:0.22366589 37:-0.20651056 38:0.049419038 39:0.08643873 40:0.06790071 41:-0.16371208 42:-0.11070812 43:0.23486352 44:-0.05621184 45:-0.17880958 46:-0.26670817 47:0.20575687 48:-0.1279716 49:0.57937682 50:0.16372694 51:0.13241705 52:0.034224384 53:0.18361536 54:-0.17722586 55:-0.071393564 56:0.011134645 57:-0.18386681 58:0.20956056 59:0.23889802 60:-0.036854904 61:-0.32807067 62:-0.14678635 63:0.012927607 64:0.54829288 65:0.075664781 66:-0.066533759 67:0.050988611 68:-0.11790183 69:0.020209935 70:0.027509473 71:-0.029068718 72:-0.18644387 73:0.34336016 74:-0.16103765 75:0.07090088 76:0.13475852 77:0.040542975 78:-0.48407939 79:0.061597545 80:0.25634518 81:-0.035757221 82:0.4449639 83:-0.21131659 84:-0.11874281 85:-0.14958006 86:0.60975319 87:-0.18826701 88:-0.050286628 89:0.10408278 90:0.063736998 91:0.082619004 92:0.50082296 93:0.050023794 94:0.013206635 95:0.44566298 96:-0.056429148 97:-0.48078993 98:-0.051853966 99:-0.05026852 100:-0.029134415 #
0.12821235964773184 1:-0.20181289 2:-0.33531108 3:0.0026199049 4:0.086824261 5:-0.29719746 6:-0.051528092 7:0.046367098 8:0.26479256 9:-0.04734103 10:0.14439532 11:-0.19530144 12:-0.2173917 13:0.13444597 14:-0.036528494 15:0.25634921 16:-0.10081147 17:-0.0836896 18:-0.2170942 19:-0.072877415 20:-0.16494241 21:-0.50218105 22:0.38625878 23:-0.031900469 24:0.22010632 25:0.1455608 26:0.66846597 27:0.10540184 28:-0.21209002 29:-0.00077854138 30:-0.18062122 31:0.22078978 32:0.14653647 33:0.20298998 34:-0.10724943 35:-0.32237652 36:0.010402364 37:0.14471075 38:0.27598783 39:-0.13162217 40:0.73868603 41:0.48585612 42:0.039831191 43:0.20093156 44:-0.18361637 45:-0.18292218 46:-0.32912561 47:-0.26199034 48:0.086758807 49:0.6030454 50:0.04304795 51:0.18109459 52:-0.084594429 53:-0.28867918 54:0.099601239 55:-0.31297562 56:-0.073073179 57:-0.30248091 58:-0.034877896 59:0.092994548 60:0.035515897 61:-0.19525291 62:-0.18786849 63:0.040012486 64:0.017566655 65:0.041415032 66:0.057012834 67:0.0085339081 68:-0.26260856 69:-0.27440608 70:0.070558354 71:0.13479984 72:-0.7066893 73:0.67448449 74:-0.035974015 75:-0.43029529 76:0.087267414 77:0.029260973 78:-0.20493662 79:0.022893606 80:0.25497711 81:0.12791641 82:0.0096097654 83:-0.45421892 84:0.075944029 85:-0.056864966 86:0.10394132 87:0.017127218 88:-0.098494738 89:-0.098887727 90:-0.087477468 91:-0.39985842 92:0.19106692 93:0.23845716 94:-0.12992306 95:-0.0051180325 96:0.17413738 97:-0.44208926 98:-0.33010906 99:0.39683241 100:-0.14577879 #
0.12821235964773184 1:-0.09707842 2:-0.20089757 3:0.34873983 4:0.050948024 5:-0.015057757 6:0.17706782 7:-0.154706 8:-0.017446755 9:-0.28151268 10:0.38264748 11:-0.56322837 12:-0.31436902 13:-0.025684536 14:0.18366787 15:-0.10344329 16:-0.403851 17:0.47997171 18:-0.042112123 19:-0.066052094 20:-0.24392439 21:-0.40241835 22:0.59805262 23:0.25974116 24:0.38891563 25:-0.067673661 26:0.60233748 27:0.0443746 28:-0.072741091 29:-0.10662416 30:-0.21856126 31:-0.31931326 32:0.30658436 33:-0.120759 34:-0.095155649 35:0.23053937 36:0.067627139 37:-0.433328 38:-0.13509493 39:0.64298487 40:0.31027633 41:0.13112499 42:0.10295065 43:0.08145462 44:-0.16305065 45:-0.47170594 46:0.087573841 47:-0.34125674 48:0.15992998 49:0.31079391 50:0.29490981 51:-0.15684913 52:0.32025751 53:0.40286836 54:-0.41129103 55:0.19688152 56:-0.13566381 57:-0.23557907 58:-0.24270748 59:0.22976623 60:-0.015341932 61:-0.38093549 62:0.33866864 63:-0.15523922 64:0.12675957 65:0.47293496 66:-0.12557545 67:-0.19424148 68:-0.35146868 69:0.036468431 70:0.01458917 71:-0.3042109 72:-0.61959535 73:0.42695108 74:0.064547479 75:0.096526422 76:0.36499774 77:0.5132336 78:-0.27482772 79:0.087524898 80:0.12242763 81:-0.23965707 82:0.17559519 83:-0.63612127 84:0.0055618556 85:-0.17698751 86:0.077339932 87:0.086943015 88:0.10377316 89:-0.10523535 90:0.11643502 91:0.062857583 92:0.42484757 93:0.36615413 94:-0.16474341 95:0.2328587 96:0.32846862 97:-0.72222769 98:-0.24948563 99:-0.30416092 100:-0.25876254 #
-0.12821235964773184 1:-0.2413633 2:-0.34059557 3:-0.54207116 4:0.12152357 5:-0.076785155 6:0.26372683 7:-0.59020042 8:-0.12779483 9:0.8081547 10:0.14646597 11:-0.047645126 12:0.1536511 13:-0.041049257 14:-0.059941519 15:-0.027214114 16:-0.36989924 17:0.27819109 18:-0.8085348 19:0.59694326 20:-0.75715715 21:-0.41841426 22:0.26664111 23:-0.14107762 24:0.020779343 25:0.33148348 26:0.28057471 27:0.33495751 28:-0.044414222 29:0.23874088 30:-0.28056821 31:-0.4326545 32:0.29696897 33:-0.28576627 34:-0.12981619 35:0.28338861 36:0.47004682 37:0.14045924 38:0.26724946 39:0.21197923 40:0.35520449 41:-0.2655465 42:0.019640123 43:-0.22763951 44:0.055984963 45:-0.17246331 46:-0.012566138 47:-0.1729015 48:-0.18698101 49:0.36051685 50:-0.2328701 51:-0.21886031 52:-0.15222865 53:-0.54628187 54:-0.05079639 55:-0.27684009 56:-0.16834322 57:-0.08440537 58:-0.48824352 59:0.17543375 60:0.0085740564 61:0.10534675 62:-0.048158783 63:-0.13057843 64:0.31781885 65:0.11479302 66:0.17333493 67:0.072665878 68:-0.30692804 69:0.026166059 70:0.1883322 71:-0.16793765 72:0.2352026 73:0.17636314 74:0.38170445 75:0.045197055 76:0.12975521 77:0.1655796 78:-0.13225716 79:0.035494421 80:0.57364488 81:-0.28499112 82:-0.341571 83:-0.14064291 84:0.35241684 85:-0.25987807 86:-0.35260034 87:-0.13760547 88:-0.13917707 89:0.16322407 90:-0.35363683 91:0.36614186 92:0.36349353 93:0.26676354 94:-0.37047705 95:0.3747884 96:-0.14543673 97:0.28718966 98:0.0072916155 99:0.31140444 100:-0.30400354 #
-0.12821235964773184 1:-0.31317383 2:0.56815559 3:0.31555647 4:0.064748339 5:0.083208613 6:0.16622886 7:0.11914575 8:0.074225172 9:0.6853624 10:0.16708595 11:-0.70757747 12:0.88866287 13:-0.24515648 14:-0.12702997 15:0.30582473 16:-0.59776342 17:0.086032592 18:-0.65866709 19:0.67352426 20:-0.10651402 21:-0.56346762 22:0.21869226 23:-0.065843463 24:-0.18061718 25:0.21902695 26:-0.2466843 27:0.55591869 28:0.43554708 29:0.19695504 30:0.0012241949 31:-0.084262587 32:0.13517174 33:-0.2940616 34:0.25446919 35:0.067896366 36:0.13876343 37:-0.33993155 38:0.16402121 39:0.47065216 40:0.10365096 41:-0.39130667 42:-0.45234445 43:0.077911489 44:-0.066473238 45:-0.6075803 46:0.31108725 47:0.016861593 48:-0.51988482 49:-0.035736535 50:0.11989293 51:-0.94466728 52:-0.23429911 53:0.53638107 54:-0.34288982 55:0.014177545 56:0.072405249 57:0.011193311 58:-0.080650911 59:0.12859458 60:0.50496185 61:-0.39411661 62:0.48978221 63:-0.30220947 64:-0.010243614 65:0.13167314 66:-0.19228818 67:-0.010684825 68:0.064452522 69:-0.066582851 70:-0.087902784 71:-0.48976129 72:-0.26163 73:0.30526787 74:0.53768575 75:-0.38938457 76:0.12951726 77:0.29586542 78:-0.26418948 79:0.13593242 80:0.20154469 81:-0.16226467 82:-0.013999642 83:-0.35190392 84:0.51366645 85:-0.20870073 86:-0.40524665 87:0.027085636 88:0.43284464 89:0.3401885 90:-0.057249714 91:0.11817164 92:0.21032184 93:-0.25323623 94:0.010643608 95:0.7553643 96:-0.12475156 97:-0.029117132 98:0.23984094 99:-0.073219761 100:-0.01351835 #
-0.12821235964773184 1:-0.15941653 2:-0.428305 3:-0.3178452 4:-0.046783254 5:-0.34302479 6:-0.27457565 7:0.018661132 8:-0.29414234 9:-0.00093928381 10:0.013099542 11:-0.017751217 12:-0.1407779 13:-0.0877202 14:0.36518687 15:0.39153054 16:-0.35869166 17:0.28345314 18:-0.46455562 19:0.17013402 20:-0.14761662 21:0.035156172 22:0.41712371 23:-0.47624138 24:-0.41356686 25:0.20610489 26:0.31385806 27:0.064728424 28:0.57543647 29:0.24069758 30:-0.30888823 31:-0.15425031 32:-0.62383211 33:0.07573203 34:0.68939489 35:-0.40359622 36:0.24375015 37:-0.2631202 38:0.11941537 39:-0.26651776 40:-0.049165748 41:-0.47879329 42:-0.031079486 43:-0.23591392 44:-0.028216651 45:-0.45122024 46:-0.28231496 47:-0.0067016291 48:0.0095712394 49:0.23100695 50:0.39061251 51:-0.22602914 52:0.42126358 53:0.46836385 54:-0.53428799 55:0.25357899 56:0.29456627 57:-0.11815297 58:-0.34072042 59:0.0047354447 60:0.041379195 61:-0.19051126 62:-0.13150118 63:-0.25722954 64:-0.51106524 65:-0.071718365 66:0.30266422 67:0.33653033 68:-0.85072124 69:0.24622323 70:-0.29279089 71:0.22882701 72:-0.18697514 73:0.19619492 74:0.10744961 75:0.051638011 76:-0.022707982 77:0.42504406 78:0.13144401 79:-0.027517019 80:0.32186347 81:-0.20643377 82:0.2169885 83:-0.18214835 84:0.095076621 85:-0.39057013 86:-0.27101776 87:-0.18723084 88:0.16097185 89:-0.24040332 90:-0.10548673 91:-0.049617641 92:0.59178758 93:0.50019556 94:-0.19866262 95:0.23732743 96:-0.32323772 97:-0.35026655 98:0.49406618 99:0.076842904 100:0.0038165278 #
-0.12821235964773184 1:0.26365414 2:0.14363936 3:-0.0061422852 4:0.10471042 5:0.10583924 6:-0.16460602 7:-0.11369634 8:0.25746897 9:0.44431186 10:0.16335258 11:-0.36254361 12:0.31500047 13:-0.0610382 14:0.044466775 15:-0.178054 16:-0.36821494 17:0.18398534 18:-0.34817207 19:0.37267768 20:-0.42566466 21:0.34612882 22:0.27732459 23:0.17161326 24:0.37257218 25:0.048373111 26:0.080165237 27:0.28219843 28:0.36589023 29:0.30696356 30:-0.14390416 31:-0.21372305 32:-0.010809031 33:-0.16208711 34:0.17756855 35:0.19052258 36:0.32845145 37:-0.22274977 38:0.13140425 39:-0.011327039 40:-0.062822044 41:0.040949579 42:-0.10699805 43:-0.32470337 44:0.21904953 45:-0.52577156 46:0.0023209793 47:0.05370659 48:0.32802865 49:0.28668636 50:-0.14166492 51:-0.25279093 52:0.25061515 53:-0.13824661 54:-0.2655226 55:0.040162697 56:0.19357362 57:-0.23838533 58:-0.26259747 59:0.4601686 60:0.31793249 61:0.018167512 62:-0.23027749 63:1.0917863 64:-0.089410461 65:0.50157386 66:0.14016247 67:0.23806109 68:-0.19471377 69:-0.27904749 70:0.20163384 71:0.39887866 72:-0.30440146 73:0.043597873 74:0.13642983 75:-0.029041503 76:-0.13600518 77:0.14328399 78:-0.023992812 79:0.12352795 80:0.056787677 81:0.23144048 82:0.055599678 83:-0.40455407 84:0.098243684 85:0.054953475 86:-0.20820893 87:-0.45614141 88:0.31719008 89:0.38626012 90:0.1760567 91:0.18601188 92:0.68390334 93:0.48715436 94:-0.43498161 95:0.25374788 96:-0.54687595 97:0.13244714 98:0.081108682 99:0.60747391 100:-0.1601502 #
0.12821235964773184 1:-0.0099776769 2:-0.19100294 3:0.33429301 4:0.016934251 5:-0.56200933 6:0.076996244 7:-0.082764484 8:0.29614457 9:-0.14818066 10:0.46222246 11:-0.22108696 12:-0.34031531 13:0.000156544 14:0.16347061 15:-0.11256978 16:-0.35621411 17:0.2492525 18:-0.37100282 19:-0.052855644 20:0.14899269 21:-0.11622145 22:0.14496608 23:-0.10083912 24:0.23651408 25:-0.18418166 26:0.538176 27:0.5177356 28:-0.33093762 29:0.00038711546 30:0.072508089 31:0.025606792 32:0.11277939 33:-0.3226155 34:-0.061685316 35:0.16829325 36:0.39653948 37:-0.3826617 38:0.18302022 39:0.022597283 40:0.18848869 41:-0.0069042989 42:0.063683227 43:0.12474637 44:-0.38900807 45:-0.56579202 46:-0.078775197 47:-0.32192427 48:0.16022778 49:0.68982011 50:-0.036031064 51:-0.093529798 52:0.34950572 53:-0.041553125 54:0.15924805 55:-0.2918615 56:-0.073749483 57:-0.41863841 58:0.37369838 59:0.1946959 60:0.042157855 61:-0.32753921 62:0.024195107 63:-0.37478185 64:-0.2732847 65:0.18061137 66:-0.0068873768 67:0.025734855 68:0.091825835 69:-0.3578243 70:0.20578109 71:-0.6195308 72:-0.47413367 73:0.58292872 74:0.27590966 75:-0.053460915 76:-0.20507462 77:0.40756708 78:-0.016436176 79:-0.17056338 80:0.12287851 81:0.46744087 82:0.27082923 83:-0.38036743 84:0.095334485 85:0.11971753 86:0.3521823 87:0.10079744 88:0.26486617 89:-0.088323683 90:0.099264577 91:0.0021061145 92:0.16835339 93:-0.16175717 94:-0.51419204 95:0.34282407 96:0.19537617 97:-0.24941358 98:-0.30575353 99:0.066071279 100:-0.24186154 #
0.12821235964773184 1:0.0048590149 2:-0.035296421 3:0.45489585 4:-0.077449962 5:-0.53714371 6:-0.50994515 7:-0.59518546 8:0.5911845 9:-0.044833142 10:-0.021746594 11:-0.20989092 12:0.050060324 13:-0.14592421 14:-0.27876595 15:0.17543609 16:-0.021030879 17:-0.032440927 18:0.18119933 19:0.32079431 20:-0.46702605 21:-0.13619728 22:0.11961249 23:0.050261375 24:0.18284847 25:0.061355203 26:0.20391592 27:0.19879951 28:-0.71441561 29:-0.58692795 30:-0.21301201 31:0.030859064 32:0.17709513 33:0.21038933 34:-0.23723075 35:0.27143466 36:-0.41839999 37:-0.81205255 38:0.20851333 39:-0.0280775 40:0.36647451 41:-0.2666018 42:-0.22936538 43:-0.041908506 44:0.067916863 45:0.10993412 46:0.056079119 47:0.19213958 48:-0.55592602 49:0.75519723 50:-0.055583008 51:-0.11679513 52:0.11699633 53:0.25990805 54:-0.16448285 55:0.11110436 56:0.04708356 57:-0.50640923 58:0.35520324 59:0.000897352 60:0.26773366 61:-0.57600754 62:0.30064365 63:-0.44418195 64:0.040942777 65:-0.0057011889 66:0.32245696 67:0.36159417 68:0.046635915 69:-0.62946796 70:0.36008951 71:-0.37879106 72:-0.51794952 73:0.64936256 74:0.14260808 75:0.21606743 76:0.34150964 77:0.15031697 78:-0.5131945 79:-0.1454725 80:-0.046793837 81:0.29529712 82:0.42387059 83:-0.54107678 84:0.071840674 85:-0.19195139 86:0.38329232 87:-0.12084075 88:0.13138984 89:0.034603197 90:0.23254713 91:0.10769404 92:0.39948338 93:-0.16163453 94:-0.025224011 95:0.78255969 96:0.092501521 97:-0.64110941 98:0.004662151 99:0.01120021 100:-0.37038949 #
0.12821235964773184 1:-0.27882263 2:-0.016939892 3:0.018683773 4:-0.17074247 5:-0.12189106 6:0.25898874 7:-0.10057954 8:0.27505344 9:-0.18048531 10:0.039730795 11:-0.36546865 12:-0.62784964 13:-0.12805732 14:-0.028751982 15:0.093682922 16:-0.55782801 17:-0.10661733 18:0.024459139 19:0.042626571 20:0.34348419 21:-0.09038315 22:0.37971997 23:0.057156552 24:0.093110591 25:0.20225148 26:0.78777587 27:0.12602822 28:-0.071105532 29:-0.16395074 30:-0.38414106 31:-0.45061383 32:0.44617191 33:0.17693323 34:-0.015743814 35:0.11540383 36:0.20616154 37:0.021432435 38:-0.14879169 39:0.28673846 40:0.22757563 41:-0.53791338 42:-0.111577 43:-0.04177307 44:0.038878318 45:-0.44373572 46:-0.26196045 47:0.11868402 48:0.008797843 49:0.49160996 50:-0.027969707 51:0.09568435 52:0.21252438 53:0.31145665 54:0.095844917 55:0.14304215 56:0.096846722 57:-0.42707434 58:-0.2142171 59:-0.0036003145 60:-0.054500014 61:0.088954963 62:-0.061383333 63:0.063014738 64:0.02741394 65:0.087365493 66:-0.34173357 67:-0.10655762 68:0.025720082 69:-0.46475679 70:-0.29700813 71:-0.066226542 72:-0.5604468 73:0.68101448 74:0.10191899 75:0.19075248 76:-0.071656175 77:0.27735555 78:-0.15001032 79:0.053858932 80:0.11659259 81:0.50082755 82:-0.32096994 83:-0.28326035 84:-0.064965256 85:-0.61601591 86:0.11208532 87:-0.10858399 88:0.075097427 89:-0.13961071 90:0.0097159734 91:-0.061029982 92:0.23098756 93:0.31366682 94:0.074830167 95:0.18663213 96:0.15234257 97:-0.4031662 98:-0.2684063 99:-0.14341348 100:0.18847926 #
0.12821235964773184 1:0.16404432 2:-0.12897368 3:-0.16980936 4:-0.019373339 5:-0.60697263 6:0.032226954 7:0.097401433 8:-0.42964989 9:-0.1054469 10:0.20318164 11:-0.324213 12:-0.3917419 13:-0.16733053 14:-0.23656058 15:-0.00097279123 16:0.011043706 17:0.10207292 18:-0.019880801 19:-0.073886678 20:-0.18915327 21:-0.20192784 22:0.18825349 23:-0.12483668 24:0.27505684 25:0.34259239 26:0.50302702 27:0.00078576262 28:0.090994351 29:-0.093218066 30:-0.14095791 31:-0.25458089 32:-0.15553188 33:-0.086163856 34:-0.31981647 35:0.12498242 36:0.4176107 37:-0.11114477 38:-0.01625072 39:0.21212019 40:0.30195627 41:-0.36390728 42:-0.20842509 43:-0.036871787 44:0.30569711 45:-0.46818048 46:-0.18561192 47:-0.1952526 48:-0.0027239458 49:0.73892367 50:0.086118706 51:0.22854573 52:0.27427632 53:0.21913631 54:-0.27653465 55:-0.09768825 56:0.045446876 57:-0.085179508 58:-0.12074027 59:0.4603084 60:-0.25620878 61:-0.39101762 62:-0.11704458 63:-0.033293393 64:0.17589739 65:0.028980918 66:-0.063077964 67:-0.11641893 68:-0.018696582 69:-0.32769704 70:-0.24589427 71:-0.23431341 72:-0.096031301 73:0.52732915 74:0.14385943 75:0.027959375 76:0.064266875 77:0.36160979 78:-0.078294493 79:0.17878094 80:0.088494889 81:-0.21149735 82:-0.1162096 83:-0.39486107 84:0.11183816 85:-0.16764009 86:0.53222048 87:-0.06277144 88:-0.10495784 89:-0.098485306 90:0.16440505 91:0.0092517948 92:0.46707323 93:-0.023926806 94:0.26353925 95:0.33496112 96:-0.23539028 97:-0.55513614 98:-0.42640087 99:-0.24681385 100:-0.14398336 #
